svm_type c_svc
kernel_type rbf
gamma 0.03125
nr_class 10
total_sv 853
rho -0.0336865 -0.406369 0.409079 -1.22477 -0.168797 -0.825405 -0.387106 -0.263296 -3.14919 -1.18633 0.941053 -0.288432 -2.8696 -0.304672 -1.47294 -4.67298 -0.481751 0.499796 -0.546214 -0.133185 -0.899169 -0.241922 -0.183402 -0.519091 -0.555493 -1.08462 -0.542019 -1.73881 -2.00573 -0.543596 0.00221183 -0.386174 -0.0666615 -0.0642807 0.190852 -0.0688026 -0.0802488 1.00829 -0.0055232 -0.049393 0.202754 -1.00067 -0.456038 0.235565 -0.371764
label 1 10 6 12 2 7 5 8 9 19
probA -3.72945 -3.59698 -4.51065 -2.28438 -3.9219 -3.38031 -3.73224 -3.92814 -1.88433 -2.79489 -2.26655 -4.06516 -2.32174 -3.52518 -2.74926 -1.49201 -3.22091 -4.01708 -3.15956 -3.68781 -1.9805 -3.71989 -2.38871 -3.80304 -4.40839 -3.4876 -3.87431 -3.03225 -2.4838 -4.14505 -4.21095 -2.44621 -4.30917 -3.75581 -3.20588 -3.73305 -2.44027 -2.34014 -3.79626 -3.80434 -3.45551 -2.91808 -3.18127 -3.7656 -3.33758
probB 0.0978578 -0.112004 -0.33077 -0.3357 -0.425572 -0.439352 -0.649259 -0.255916 -0.0825995 0.0632733 -0.0803124 -0.335971 -0.188638 -0.124064 -0.162349 -0.500184 0.237902 0.107011 0.0253359 -0.0186861 0.0489843 -0.175943 -0.133246 -0.330939 -0.0231912 -0.29265 -0.145092 -0.0474206 0.0679243 0.595011 -0.315712 -0.105061 -0.187332 -0.27984 -0.127597 0.000710532 -0.119128 0.106878 0.322538 0.0701887 0.0205416 0.218203 0.200289 0.433459 0.166689
nr_sv 119 169 83 84 60 44 61 55 71 107
SV
0 0 0 13.54280239477607 0 0 0 0 0 0:-0.70604789 1:0.814316 2:-0.23076924 3:-0.8725756 4:-0.97988837 5:-0.93587218 6:-0.9 7:0.7595453 8:-0.66666667 9:-0.98705087 10:-0.70720181 11:-0.055301411 12:-0.27169978 13:-0.14146407 14:-1 15:-0.083333337 16:-1 17:-1 18:-1 19:0.072541595 20:-0.4561771 21:-0.041673518 22:-0.45981817 23:-1 24:-1 25:-1 26:-1 27:-1 28:0.068234149 29:-0.57251698 30:-0.64025695 31:-0.88774423 32:-0.96936393 33:-1 34:-0.94826157 35:-1 36:-0.99586961 37:-0.98999105 38:-0.34474894 39:-0.74486384 40:-0.89707491 41:-0.90529394 42:-0.8721907 43:-0.42191759 44:-0.66345123 45:-0.92144204 46:-0.22688382 47:-0.82470432 48:-0.84242665 49:0.10198352 50:0.54454917 51:-0.47818912 52:-0.93709628 53:0.55459804 54:0.35984956 55:-0.85966574 56:-0.72152838 57:-0.69980075 58:0.54660588 59:-0.69980075 60:-0.21033589 61:-0.98586719 62:-0.21702517 63:-0.98392093 64:-0.8838299 65:-0.66690763 66:0.70137874 67:-0.99998119 68:-0.76714178 69:-0.58815992 70:-0.98339532 71:-0.99605016 72:-0.99520167 73:-0.75668363 74:-0.99520167 75:-0.87136542 76:-0.60017631 77:-0.84532256 78:-0.84649441 79:-0.26371366 80:0.4237898 81:-0.37572613 82:-0.95387808 83:0.53556274 84:0.27132397 85:-0.91842015 86:-0.74659451 87:-0.70316099 88:0.56295089 89:-0.70316099 90:-0.28192926 91:-0.99376194 92:-0.31160243 93:-0.98400084 94:-0.92234003 95:-0.66836108 96:0.65636863 97:-0.99998458 98:-0.77553073 99:-0.6153682 100:-0.99977726 101:-0.99614147 102:-0.99522488 103:-0.75167114 104:-0.99522488 105:-0.77086068 106:-0.72912875 107:-0.92223069 108:-0.82824817 109:-0.42025966 110:0.3508135 111:-0.31281595 112:-0.95993258 113:0.53778237 114:0.17820857 115:-0.92508131 116:-0.74299823 117:-0.66036141 118:0.58118893 119:-0.66036141 120:-0.28777517 121:-0.99580074 122:-0.50772817 123:-0.98245101 124:-0.94026998 125:-0.6648146 126:0.58644957 127:-0.99998531 128:-0.78735022 129:-0.66410846 130:-0.99978347 131:-0.99635729 132:-0.9945299 133:-0.73736228 134:-0.9945299 135:-0.75343032 136:-0.77834072 137:-0.93666148 138:-0.76174266 139:-0.52699167 140:0.3352583 141:-0.1924594 142:-0.9547693 143:0.59122149 144:0.26490592 145:-0.90711408 146:-0.62005423 147:-0.51241677 148:0.60790879 149:-0.51241677 150:-0.26061881 151:-0.99681635 152:-0.56484005 153:-0.97500393 154:-0.95674638 155:-0.66280865 156:0.60626945 157:-0.99998157 158:-0.78820397 159:-0.67007393 160:-0.99974301 161:-0.99463211 162:-0.99192112 163:-0.67923438 164:-0.99192112 165:-0.27332606 166:-0.18392786 167:-0.6172997 168:-0.45921721 169:0.77702927 170:-0.80842282 171:-0.068638604 172:-0.30463142 173:0.23737933 174:-0.17228131 175:-0.92386069 176:-0.94121526 177:-0.03069103 178:-0.36109111 179:0.30297493 180:-0.19505706 181:0.25552298 182:-0.23028153 183:0.15814319 184:-0.62026937 185:0.34787248 186:-0.48062367 187:-0.59024592 188:0.98851692 189:0.68055051 190:-0.59389612 191:-0.27767623 192:-0.44595393 193:-0.11061982 194:-0.30547221 195:-0.67445998 196:0.35234163 197:0.69641384 198:-0.016307616 199:-0.92229166 200:-0.76868919 201:0.19167471 202:-0.17546783 203:0.21455888 204:0.16296616 205:0.43453623 206:0.55841631 207:-0.01905276 208:0.68120261 209:0.5661822 210:-0.88498774 211:0.57129311 212:0.95516454 213:0.32065586 214:0.14776212 215:-0.49403943 216:-0.52889067 217:-0.96691019 218:-0.98091293 219:-0.75282479 220:-0.27152488 221:-0.039367568 222:-0.76856121 223:-0.94392276 224:-0.66390722 225:-0.3814779 226:-0.94198748 227:0.59398207 228:-0.34015918 229:-0.31045473 230:-0.3814779 231:-0.72106289 232:-0.31103679 233:-0.4561771 234:-0.041673719 235:-0.45981839 236:-0.46029851 237:-0.75633753 238:-0.79268841 
0 0 0 42.47406389403935 0 0 0 0 0 0:-0.89106086 1:0.92817997 2:-0.38461539 3:-0.99190808 4:-0.96252018 5:-0.93391108 6:-0.96794872 7:0.7595453 8:-1 9:-0.99997594 10:-0.82577349 11:-0.18153062 12:0.074451566 13:0.40272996 14:-1 15:0.083333329 16:-1 17:-1 18:-1 19:-0.61958802 20:0.099051598 21:-0.53201336 22:0.078569776 23:-1 24:-1 25:-1 26:-1 27:-1 28:0.029935226 29:-0.6510612 30:-0.76985434 31:-0.94207696 32:-0.97681726 33:-1 34:-1 35:-1 36:-1 37:-0.9690549 38:-0.48529444 39:-0.80463246 40:-0.96476099 41:-0.87420186 42:-0.91587617 43:-0.82597065 44:-0.64703285 45:-0.93896286 46:-0.3048533 47:-0.89521178 48:-0.72406098 49:0.044254761 50:0.70874776 51:-0.4520777 52:-0.87923877 53:0.65389787 54:0.61023492 55:-0.8739785 56:-0.53510189 57:-0.51239627 58:0.65844463 59:-0.51239627 60:-0.31109159 61:-0.98383641 62:-0.36917635 63:-0.97785517 64:-0.8675311 65:-0.5631404 66:0.65969519 67:-0.99995315 68:-0.69742569 69:-0.45007505 70:-0.98337653 71:-0.99279351 72:-0.99210873 73:-0.68398461 74:-0.99210873 75:-0.89886444 76:-0.58224541 77:-0.90791809 78:-0.72646617 79:-0.24414141 80:0.59816298 81:-0.37451923 82:-0.90890399 83:0.64952278 84:0.53307232 85:-0.90196898 86:-0.56864343 87:-0.50719715 88:0.68074343 89:-0.50719715 90:-0.36150665 91:-0.99238634 92:-0.46098318 93:-0.97722895 94:-0.91324722 95:-0.571297 96:0.62487851 97:-0.99996218 98:-0.70662244 99:-0.47586905 100:-0.99968707 101:-0.99294826 102:-0.99189948 103:-0.67468092 104:-0.99189948 105:-0.82610006 106:-0.68416574 107:-0.95052277 108:-0.69712778 109:-0.36706083 110:0.54414103 111:-0.31981248 112:-0.91693201 113:0.66849903 114:0.4399652 115:-0.88321755 116:-0.55308413 117:-0.43421111 118:0.70315187 119:-0.43421111 120:-0.3985209 121:-0.99477545 122:-0.57040424 123:-0.97492508 124:-0.93275179 125:-0.56260621 126:0.54981664 127:-0.99996457 128:-0.7210061 129:-0.50917259 130:-0.99963081 131:-0.9928194 132:-0.99075686 133:-0.65372785 134:-0.99075686 135:-0.82272373 136:-0.69442387 137:-0.9511902 138:-0.58664584 139:-0.4219113 140:0.55880256 141:-0.30998904 142:-0.90406375 143:0.73726083 144:0.51519815 145:-0.84037059 146:-0.36179458 147:-0.20990091 148:0.71320907 149:-0.20990091 150:-0.440538 151:-0.99482905 152:-0.62471934 153:-0.96475035 154:-0.93893431 155:-0.52908662 156:0.47901403 157:-0.99995417 158:-0.71965359 159:-0.52214387 160:-0.99949597 161:-0.98965939 162:-0.98675851 163:-0.58145538 164:-0.98675851 165:-0.52304596 166:-0.3257298 167:-0.7127176 168:-0.47654616 169:0.78463969 170:-0.41521166 171:0.015291917 172:0.1725836 173:0.3491243 174:0.13695614 175:-0.89146954 176:-0.90550249 177:0.17555152 178:0.025801485 179:0.31501919 180:0.058822647 181:0.012164681 182:-0.23066854 183:-0.017204612 184:-0.56764395 185:0.23260652 186:-0.023776901 187:-0.6748498 188:0.99560123 189:0.60806652 190:-0.30243009 191:-0.28117309 192:-0.46308328 193:-0.022385511 194:-0.19865664 195:-0.81750554 196:-0.65903266 197:0.51864739 198:0.13619587 199:-0.68339726 200:-0.45323604 201:-0.1993957 202:-0.14571651 203:-0.2353377 204:-0.15138984 205:0.50338377 206:0.5375294 207:-0.12967404 208:0.34629371 209:0.69484904 210:-0.63392325 211:0.6637893 212:0.96653477 213:0.47977188 214:0.31766719 215:-0.85385234 216:-0.87850153 217:-0.98178713 218:-0.99729076 219:-0.75301664 220:-0.27546883 221:-0.03922663 222:-0.69009117 223:-0.90204603 224:-0.6876077 225:-0.49668641 226:-0.91173325 227:0.67273929 228:-0.11688763 229:-0.45772273 230:-0.49668641 231:-0.61807737 232:-0.3645485 233:0.099051598 234:-0.53201346 235:0.07856935 236:-0.47820896 237:-0.93531928 238:-0.74533446 
0 1.655618496788901 0 0 0 2.58822307236669 0 0 8.290716251105795 0:-0.89982974 1:0.86606454 2:-0.38461539 3:-0.97694732 4:-0.92782738 5:-0.87320751 6:-0.95512821 7:0.70264397 8:-1 9:-0.99987971 10:-0.61885287 11:-0.2621914 12:-0.27169978 13:0.020942414 14:-4.9999997e-08 15:-0.41666667 16:0.9999998 17:-1 18:-1 19:-0.14879191 20:-0.30641443 21:-0.20756281 22:-0.31559863 23:-0.86110461 24:-1 25:-1 26:-0.9620612 27:-1 28:-0.17767532 29:-0.76862316 30:-0.86219849 31:-0.84543679 32:-0.97177568 33:-0.9298705 34:-1 35:-0.96708678 36:-0.99727782 37:-0.94986652 38:-0.52057274 39:-0.7815328 40:-0.85439334 41:-0.83626034 42:-0.65109815 43:-0.58288754 44:-0.55279206 45:-0.93537908 46:-0.48822828 47:-0.87998279 48:-0.70250989 49:-0.14813183 50:0.6100061 51:-0.29939777 52:-0.86916269 53:0.4618483 54:0.70103371 55:-0.74762197 56:-0.52044641 57:-0.53067009 58:0.47623063 59:-0.53067009 60:-0.52706084 61:-0.98196227 62:-0.53679918 63:-0.95939673 64:-0.85832067 65:-0.4264234 66:0.63937309 67:-0.99988027 68:-0.71150949 69:-0.26948415 70:-0.98275834 71:-0.9873385 72:-0.98694068 73:-0.70006757 74:-0.98694068 75:-0.92011601 76:-0.66492222 77:-0.87483774 78:-0.70827931 79:-0.31057654 80:0.58890054 81:-0.38197732 82:-0.87936179 83:0.45421627 84:0.64860615 85:-0.79512041 86:-0.51924505 87:-0.53390653 88:0.48647271 89:-0.53390653 90:-0.62959385 91:-0.98969451 92:-0.54008934 93:-0.95923153 94:-0.88527309 95:-0.40301705 96:0.50712598 97:-0.99988921 98:-0.71949474 99:-0.28617144 100:-0.99901562 101:-0.98674816 102:-0.9870973 103:-0.69600507 104:-0.9870973 105:-0.89707855 106:-0.67309329 107:-0.91924777 108:-0.6962664 109:-0.30873407 110:0.62619316 111:-0.45948694 112:-0.87933083 113:0.48367334 114:0.54325275 115:-0.78056035 116:-0.50306692 117:-0.50127244 118:0.48181473 119:-0.50127244 120:-0.68090285 121:-0.99077867 122:-0.62380131 123:-0.95526383 124:-0.89741075 125:-0.35693559 126:0.35161202 127:-0.99988801 128:-0.73066106 129:-0.33930918 130:-0.99889193 131:-0.98660581 132:-0.9856695 133:-0.68184313 134:-0.9856695 135:-0.90258488 136:-0.5890713 137:-0.93118853 138:-0.64753612 139:-0.21708936 140:0.64997714 141:-0.67244033 142:-0.85308562 143:0.54695205 144:0.52429768 145:-0.73912415 146:-0.41576347 147:-0.41839798 148:0.4201421 149:-0.41839798 150:-0.70425578 151:-0.98833795 152:-0.67198285 153:-0.94640804 154:-0.88621764 155:-0.31882786 156:0.12626696 157:-0.99985756 158:-0.7296018 159:-0.40072787 160:-0.99862782 161:-0.98436297 162:-0.98291405 163:-0.63578144 164:-0.98291405 165:-0.36698096 166:-0.18886415 167:-0.7423816 168:-0.60681207 169:0.50546582 170:-0.13093424 171:-0.1499537 172:0.040917182 173:0.4054802 174:-0.1632945 175:-0.70852419 176:-0.71957205 177:0.52154641 178:-0.0083206325 179:-0.10711478 180:-0.53761704 181:0.50218994 182:-0.27237908 183:-0.039636738 184:-0.3527512 185:-0.031641423 186:-0.45045365 187:-0.48082395 188:0.95496967 189:0.45838056 190:-0.36593924 191:-0.5334272 192:-0.58830478 193:-0.17571497 194:-0.17604394 195:-0.86710475 196:-0.72821351 197:0.5970793 198:0.13644683 199:-0.83954163 200:-0.7992763 201:0.28639136 202:0.26235863 203:0.24766049 204:0.12844395 205:0.49132985 206:0.53712676 207:-0.50649745 208:-0.56438081 209:0.33673161 210:-0.043434577 211:0.47295287 212:0.98873827 213:0.33060035 214:0.27604504 215:-0.64081785 216:-0.66968883 217:-0.98981943 218:-0.99389328 219:-0.75296419 220:-0.27054701 221:-0.03922845 222:-0.70828456 223:-0.86681158 224:-0.75110616 225:-0.57397529 226:-0.89553004 227:0.47821818 228:-0.15835043 229:-0.57275122 230:-0.57397529 231:-0.60082903 232:-0.41137124 233:-0.30641443 234:-0.20756297 235:-0.31559889 236:-0.60597015 237:-0.76981871 238:-0.9567446 
1.153265739259252 0.4666701139253691 0.2649759946700426 0 0 0.5787223628023646 0 0 0 0:-0.67752404 1:0.8545739 2:0.076923069 3:-0.9811118 4:-0.92235199 5:-0.8199077 6:-0.96886447 7:0.7595453 8:-1 9:-0.99997643 10:-0.83638321 11:-0.53229687 12:-0.25058525 13:0.39507958 14:-1 15:-0.41666667 16:-1 17:-1 18:-1 19:-0.67588711 20:0.16341785 21:-0.57409562 22:0.13831272 23:-1 24:-1 25:-1 26:-1 27:-1 28:-0.29478286 29:-0.71272706 30:-0.62108499 31:-0.92985825 32:-0.9799615 33:-0.80078026 34:-0.90313416 35:-1 36:-0.98453399 37:-0.92879189 38:-0.41854451 39:-0.76310142 40:-0.85734917 41:-0.7217318 42:-0.75055678 43:-0.85015112 44:-0.33701792 45:-0.95596415 46:-0.33687998 47:-0.88346712 48:-0.65075625 49:0.025951505 50:0.70922711 51:-0.4479438 52:-0.8386424 53:0.29282624 54:0.72243054 55:-0.7191816 56:-0.51730075 57:-0.52397178 58:0.27738999 59:-0.52397178 60:-0.48282759 61:-0.98127517 62:-0.53101836 63:-0.95763574 64:-0.85506096 65:-0.44775939 66:0.63228679 67:-0.99989316 68:-0.75654878 69:-0.30379261 70:-0.98289717 71:-0.98899212 72:-0.98801396 73:-0.74857419 74:-0.98801396 75:-0.94141481 76:-0.54810706 77:-0.88073264 78:-0.66532309 79:-0.16661556 80:0.66711079 81:-0.50955908 82:-0.85356219 83:0.29741622 84:0.64589783 85:-0.75981934 86:-0.537226 87:-0.53865642 88:0.28480562 89:-0.53865642 90:-0.58341585 91:-0.98870625 92:-0.55639382 93:-0.95800369 94:-0.88172346 95:-0.42549445 96:0.50094837 97:-0.99990542 98:-0.76160761 99:-0.33489164 100:-0.99915152 101:-0.98904819 102:-0.98830492 103:-0.74518771 104:-0.98830492 105:-0.9118282 106:-0.60136639 107:-0.91619384 108:-0.66249868 109:-0.21278079 110:0.67373656 111:-0.5784729 112:-0.85353401 113:0.31856397 114:0.53823142 115:-0.74930959 116:-0.51702574 117:-0.52695502 118:0.26806013 119:-0.52695502 120:-0.64192376 121:-0.99045143 122:-0.59013375 123:-0.9571541 124:-0.89347898 125:-0.38216622 126:0.32575017 127:-0.99990569 128:-0.77252214 129:-0.38737697 130:-0.99903564 131:-0.98893912 132:-0.9880142 133:-0.73841028 134:-0.9880142 135:-0.89752661 136:-0.59469434 137:-0.92766397 138:-0.60705019 139:-0.2583121 140:0.63670693 141:-0.59351753 142:-0.86215425 143:0.34453941 144:0.51126486 145:-0.7480858 146:-0.39676131 147:-0.44722649 148:0.22657696 149:-0.44722649 150:-0.65149725 151:-0.99006546 152:-0.65473271 153:-0.94661794 154:-0.90259752 155:-0.35975742 156:0.24836281 157:-0.99990095 158:-0.77737312 159:-0.43833421 160:-0.99895555 161:-0.98619252 162:-0.985164 163:-0.70104243 164:-0.985164 165:-0.6495753 166:-0.29643895 167:-0.75807216 168:-0.74006573 169:0.33822766 170:-0.10680417 171:-0.20837687 172:-0.30302636 173:0.081140949 174:-0.18331755 175:-0.8289681 176:-0.87710874 177:0.15205314 178:-0.24432496 179:-0.056457157 180:-0.034690064 181:-0.1543865 182:-0.35926492 183:-0.071006174 184:-0.42877511 185:-0.28160419 186:-0.20446004 187:-0.29121656 188:0.98945069 189:0.25996687 190:-0.1247026 191:-0.67424401 192:-0.7241583 193:-0.076095537 194:-0.085240978 195:-0.60136815 196:0.074545297 197:0.58210877 198:0.022242466 199:-0.82427468 200:-0.81488648 201:0.1672089 202:0.48012243 203:-0.25618466 204:-0.082633134 205:0.46903718 206:0.48461444 207:-0.45993662 208:-0.35567112 209:0.18995702 210:-0.17336441 211:0.28761425 212:0.91148805 213:0.21480558 214:0.20053269 215:-0.87447671 216:-0.89852222 217:-0.9830804 218:-0.99668565 219:-0.75299281 220:-0.27388821 221:-0.039215974 222:-0.75513782 223:-0.8807492 224:-0.87149267 225:-0.75112416 226:-0.8790326 227:0.28860469 228:-0.13026016 229:-0.76604008 230:-0.75112416 231:-0.54974658 232:-0.60535117 233:0.16341785 234:-0.57409571 235:0.13831227 236:-0.74149254 237:-0.70798926 238:-0.87770003 
0 0 0 0 0 0 0 0 38.34541903096518 0:-0.7427508 1:0.93041115 2:-0.53846154 3:-0.96730248 4:-0.97149655 5:-0.91895846 6:-0.95299145 7:0.7595453 8:-1 9:-0.99946537 10:-0.79463865 11:-0.34929514 12:-0.14919512 13:0.29587763 14:-1 15:-0.25 16:-1 17:-1 18:-1 19:-0.62652974 20:0.10668547 21:-0.53477131 22:0.088846113 23:-1 24:-1 25:-1 26:-1 27:-1 28:-0.39832462 29:-0.70489288 30:-0.74933808 31:-0.89783438 32:-0.976003 33:-1 34:-1 35:-1 36:-1 37:-0.99241072 38:-0.58647083 39:-0.77830267 40:-0.87842298 41:-0.83166038 42:-0.67906596 43:-0.8249173 44:-0.52347935 45:-0.93199232 46:-0.25337773 47:-0.9155418 48:-0.71289246 49:0.048518971 50:0.64574454 51:-0.41612454 52:-0.86098019 53:0.7805674 54:0.64378859 55:-0.88714025 56:-0.51159238 57:-0.46157142 58:0.79233178 59:-0.46157142 60:-0.69468557 61:-0.95695396 62:-0.78681696 63:-0.94149181 64:-0.73188086 65:-0.21291604 66:0.35719094 67:-0.99960999 68:-0.47969631 69:-0.087818402 70:-0.98329762 71:-0.97532303 72:-0.97160244 73:-0.46640541 74:-0.97160244 75:-0.91105236 76:-0.46215857 77:-0.93197413 78:-0.71388615 79:-0.14057837 80:0.59293153 81:-0.41390796 82:-0.89972501 83:0.77537659 84:0.54019615 85:-0.88779333 86:-0.56760348 87:-0.45880456 88:0.79182472 89:-0.45880456 90:-0.74743347 91:-0.97118957 92:-0.82398796 93:-0.93990307 94:-0.78867085 95:-0.20481477 96:0.22173585 97:-0.99970942 98:-0.49339138 99:-0.14789016 100:-0.99874282 101:-0.97686781 102:-0.97139839 103:-0.45900362 104:-0.97139839 105:-0.86051744 106:-0.58294249 107:-0.96734899 108:-0.68542461 109:-0.25350458 110:0.56275378 111:-0.37023587 112:-0.90761084 113:0.78134962 114:0.43772486 115:-0.85548675 116:-0.571113 117:-0.3907193 118:0.78367766 119:-0.3907193 120:-0.77046382 121:-0.97782663 122:-0.87630347 123:-0.93257576 124:-0.83054198 125:-0.19307647 126:0.11685717 127:-0.99972475 128:-0.51855102 129:-0.20805418 130:-0.99811859 131:-0.97768104 132:-0.9677745 133:-0.43319737 134:-0.9677745 135:-0.86294031 136:-0.6130932 137:-0.9576366 138:-0.58044673 139:-0.30252523 140:0.57339299 141:-0.46779062 142:-0.89193033 143:0.83319054 144:0.48514566 145:-0.80674951 146:-0.39296572 147:-0.17975015 148:0.75941262 149:-0.17975015 150:-0.78170867 151:-0.97917153 152:-0.88312669 153:-0.90698269 154:-0.84641038 155:-0.16723528 156:0.0083150088 157:-0.9996562 158:-0.5193073 159:-0.23010409 160:-0.9974394 161:-0.96883062 162:-0.95556116 163:-0.32505408 164:-0.95556116 165:-0.65568377 166:-0.31940872 167:-0.80670708 168:-0.58709292 169:0.6701342 170:-0.15032417 171:0.23616759 172:-0.074607736 173:0.66572222 174:-0.0058409093 175:-0.85755701 176:-0.88087347 177:0.32381986 178:-0.18136544 179:0.13183639 180:-0.051508836 181:0.34292256 182:-0.55651902 183:-0.0024971809 184:-0.36476014 185:-0.076394213 186:-0.24834299 187:-0.79046789 188:0.95695639 189:0.68167573 190:-0.33479618 191:-0.26379352 192:-0.56881276 193:0.28090751 194:0.045466748 195:-0.76826449 196:-0.27740261 197:0.6974832 198:-0.1536011 199:-0.7496598 200:-0.62800665 201:0.320306 202:-0.240508 203:-0.24636105 204:-0.20846131 205:0.67703609 206:0.55292091 207:-0.57511788 208:-0.2873549 209:0.73059866 210:-0.10734878 211:0.79352471 212:0.98941894 213:0.5971952 214:0.41041472 215:-0.85295156 216:-0.88061531 217:-0.9763272 218:-0.9965957 219:-0.75302174 220:-0.27548821 221:-0.039216218 222:-0.47311061 223:-0.79802972 224:-0.63096808 225:-0.60108469 226:-0.84784835 227:0.79150164 228:-0.081461919 229:-0.51516799 230:-0.60108469 231:-0.56740686 232:-0.44481605 233:0.10668547 234:-0.53477141 235:0.088845682 236:-0.58626866 237:-0.85934968 238:-0.72876615 
0 0.4925530115046203 0 0 0 0 0 0 0 0:-0.67946985 1:0.92148347 2:-0.69230769 3:-0.95543929 4:-0.96548828 5:-0.9534244 6:-0.93589744 7:0.63102679 8:-1 9:-0.9991339 10:-0.83153948 11:-0.4431446 12:-0.2100475 13:0.32690672 14:-1 15:-0.25 16:-1 17:-1 18:-1 19:-0.7633134 20:0.2773898 21:-0.6398534 22:0.24815185 23:-1 24:-1 25:-1 26:-1 27:-1 28:-0.33824699 29:-0.76561083 30:-0.8184229 31:-0.9095688 32:-0.97830717 33:-1 34:-1 35:-1 36:-1 37:-0.92149016 38:-0.5279497 39:-0.80592368 40:-0.87787421 41:-0.91813939 42:-0.80887534 43:-0.87856654 44:-0.4451523 45:-0.89648747 46:-0.56110255 47:-0.88021807 48:-0.653912 49:-0.23403573 50:0.4985695 51:-0.21938573 52:-0.84829279 53:0.22529507 54:0.6674261 55:-0.76700493 56:-0.54415565 57:-0.54042995 58:0.2349299 59:-0.54042995 60:-0.56172008 61:-0.97685414 62:-0.64908371 63:-0.94188745 64:-0.82373668 65:-0.34599034 66:0.5544818 67:-0.99976001 68:-0.71992113 69:-0.18163025 70:-0.98254104 71:-0.98334774 72:-0.9822717 73:-0.71292173 74:-0.9822717 75:-0.87684452 76:-0.66654431 77:-0.87961231 78:-0.66684809 79:-0.34451706 80:0.49105817 81:-0.28867596 82:-0.86956344 83:0.22914642 84:0.61420941 85:-0.8070542 86:-0.56212973 87:-0.55018892 88:0.25276756 89:-0.55018892 90:-0.63340665 91:-0.98556402 92:-0.66694786 93:-0.94211899 94:-0.86364835 95:-0.33046737 96:0.44387661 97:-0.99979716 98:-0.72540728 99:-0.21539067 100:-0.99865452 101:-0.98332993 102:-0.98260408 103:-0.70785283 104:-0.98260408 105:-0.83680888 106:-0.70436299 107:-0.91443063 108:-0.66405896 109:-0.37541584 110:0.52285986 111:-0.36742091 112:-0.88100733 113:0.25688217 114:0.52540306 115:-0.80300506 116:-0.53400041 117:-0.53122215 118:0.26086577 119:-0.53122215 120:-0.68475636 121:-0.9881589 122:-0.69125548 123:-0.93997878 124:-0.88311244 125:-0.29074399 126:0.29943492 127:-0.99981332 128:-0.736337 129:-0.26368668 130:-0.99848697 131:-0.98281061 132:-0.98180413 133:-0.69553674 134:-0.98180413 135:-0.84888956 136:-0.63859725 137:-0.93440446 138:-0.58827806 139:-0.33699364 140:0.55874652 141:-0.41623809 142:-0.88495536 143:0.31158137 144:0.49681879 145:-0.79365349 146:-0.41938973 147:-0.42507646 148:0.22787885 149:-0.42507646 150:-0.70824853 151:-0.98610704 152:-0.75002613 153:-0.92190999 154:-0.8832503 155:-0.24433566 156:0.17573922 157:-0.99979668 158:-0.73670371 159:-0.30906772 160:-0.99830333 161:-0.97812102 162:-0.97656954 163:-0.64940437 164:-0.97656954 165:-0.72296015 166:-0.3508973 167:-0.5562173 168:-0.64864057 169:0.28097299 170:-0.22073879 171:-0.37215596 172:-0.32873982 173:0.04908447 174:0.0090422169 175:-0.65801407 176:-0.73154686 177:0.45907213 178:-0.14291875 179:-0.035841637 180:0.13745485 181:-0.34806746 182:-0.45587369 183:-0.26613867 184:-0.49527691 185:-0.49738941 186:-0.36160515 187:-0.22253416 188:0.96067171 189:0.2099924 190:-0.056775171 191:-0.61133853 192:-0.63083284 193:-0.18767188 194:-0.16331783 195:-0.63904314 196:-0.020093658 197:0.66141135 198:0.23956301 199:-0.74241124 200:-0.7015727 201:-0.016211522 202:0.37484499 203:-0.27994987 204:-0.19357245 205:0.57307755 206:0.46374501 207:-0.64062118 208:-0.51373312 209:0.05643054 210:-0.23956501 211:0.22400413 212:0.96887041 213:0.15500883 214:0.13110842 215:-0.89858209 216:-0.92761651 217:-0.97900203 218:-0.99750907 219:-0.75299282 220:-0.27382357 221:-0.03922779 222:-0.71742102 223:-0.84444263 224:-0.81710489 225:-0.66728679 226:-0.88171081 227:0.22247971 228:-0.15898409 229:-0.72000097 230:-0.66728679 231:-0.6007544 232:-0.51170569 233:0.2773898 234:-0.63985347 235:0.24815136 236:-0.64835821 237:-0.62552799 238:-0.98779777 
0 0 0 0 1.261071884299583 0 3.670450025176101 0 33.68108099654096 0:-0.77717226 1:0.85802037 2:-0.69230769 3:-0.95208607 4:-0.91303288 5:-0.93370836 6:-0.94230769 7:0.7595453 8:-1 9:-0.99978348 10:-0.69388553 11:-0.49880422 12:-0.38302737 13:0.10364884 14:-1 15:-0.5 16:-1 17:-1 18:-1 19:-0.41171882 20:-0.10133579 21:-0.38456839 22:-0.11028531 23:-1 24:-1 25:-1 26:-1 27:-1 28:-0.62461317 29:-0.82601551 30:-0.93922405 31:-0.967242 32:-0.98897568 33:-1 34:-1 35:-1 36:-0.99573024 37:-0.87170125 38:-0.67893623 39:-0.75308478 40:-0.89685116 41:-0.84588911 42:-0.49397487 43:-0.72532827 44:-0.35207674 45:-0.97532499 46:-0.19680913 47:-0.9492607 48:-0.46895367 49:0.1220268 50:0.82988701 51:-0.49055327 52:-0.72342034 53:0.54609986 54:0.89513678 55:-0.79622541 56:-0.25152573 57:-0.20270248 58:0.53551511 59:-0.20270248 60:-0.91103686 61:-0.88561212 62:-0.93554413 63:-0.83209208 64:-0.49299497 65:0.23720207 66:-0.073877938 67:-0.99559317 68:-0.22011275 69:0.33471592 70:-0.9790229 71:-0.90457472 72:-0.89586252 73:-0.21561946 74:-0.89586252 75:-0.96666869 76:-0.34690367 77:-0.9552992 78:-0.47145158 79:-0.00028419953 80:0.79323177 81:-0.55464911 82:-0.77521384 83:0.56925619 84:0.81670911 85:-0.75160068 86:-0.30578892 87:-0.19798439 88:0.53817663 89:-0.19798439 90:-0.93240059 91:-0.91149049 92:-0.94375474 93:-0.82695602 94:-0.57388081 95:0.23879119 96:-0.24918493 97:-0.99639569 98:-0.23028618 99:0.27481721 100:-0.98974881 101:-0.90787682 102:-0.89524198 103:-0.20716901 104:-0.89524198 105:-0.95067006 106:-0.41899179 107:-0.97418103 108:-0.42359046 109:-0.038553386 110:0.78672091 111:-0.61516807 112:-0.77848501 113:0.6045821 114:0.70637707 115:-0.66560471 116:-0.28542148 117:-0.11353182 118:0.51380611 119:-0.11353182 120:-0.94169373 121:-0.92282358 122:-0.95593233 123:-0.80659724 124:-0.63258548 125:0.25121674 126:-0.38805088 127:-0.99644056 128:-0.25901332 129:0.20245715 130:-0.9848964 131:-0.90905682 132:-0.8843233 133:-0.17977589 134:-0.8843233 135:-0.94723905 136:-0.28290229 137:-0.96513271 138:-0.22724356 139:0.063218246 140:0.77294957 141:-0.71901148 142:-0.71739378 143:0.62053563 144:0.66493424 145:-0.55332747 146:-0.14883623 147:0.094531095 148:0.36958004 149:0.094531095 150:-0.948108 151:-0.90542861 152:-0.95576679 153:-0.73525313 154:-0.61459687 155:0.288353 156:-0.52649353 157:-0.99509659 158:-0.27071029 159:0.15404817 160:-0.97860805 161:-0.89109368 162:-0.85122736 163:-0.091821462 164:-0.85122736 165:-0.40079222 166:-0.13148752 167:-0.78049069 168:-0.77293098 169:0.058924881 170:0.31441227 171:-0.17423786 172:-0.1945888 173:0.36168428 174:0.21726129 175:-0.80960448 176:-0.89905612 177:0.12543008 178:-0.17005862 179:0.26889308 180:-0.017327087 181:0.13939169 182:-0.15454298 183:0.10417509 184:-0.028886638 185:-0.69533756 186:-0.25649031 187:-0.52203886 188:0.92758877 189:0.26454687 190:0.16013399 191:-0.598857 192:-0.75487301 193:0.34555979 194:0.19663792 195:-0.72857646 196:-0.08374895 197:0.63307343 198:0.38748492 199:-0.66887379 200:-0.66973573 201:0.26305739 202:0.25349802 203:-0.066772897 204:-0.044552675 205:0.46605118 206:0.68026092 207:-0.69777554 208:-0.67149675 209:0.28044156 210:0.42250514 211:0.52391004 212:0.87582798 213:0.5344097 214:0.43886111 215:-0.76690865 216:-0.79610023 217:-0.9881019 218:-0.99751958 219:-0.75300818 220:-0.27513191 221:-0.039219257 222:-0.22284928 223:-0.57488712 224:-0.71585802 225:-0.76462581 226:-0.6206616 227:0.52425975 228:0.16466894 229:-0.76498277 230:-0.76462581 231:-0.28779219 232:-0.60535117 233:-0.10133579 234:-0.38456852 235:-0.11028566 236:-0.7719403 237:-0.88397537 238:-0.82034931 
0 0 0 11.63907659559582 0 0 0 0 0 0:-0.66390487 1:0.89358289 2:-0.84615385 3:-0.91467046 4:-0.99399243 5:-0.96429888 6:-0.75641026 7:0.7595453 8:-0.66666667 9:-1 10:-0.67252301 11:-0.15897911 12:-0.2100475 13:0.011876145 14:-1 15:-0.33333334 16:-1 17:-1 18:-1 19:-0.27409842 20:-0.21342491 21:-0.28483671 22:-0.21321346 23:-1 24:-1 25:-1 26:-1 27:-1 28:-0.21523104 29:-0.56311945 30:-0.78445862 31:-0.90296637 32:-0.98215652 33:-1 34:-1 35:-0.94439551 36:-0.99540108 37:-0.98662681 38:-0.52959835 39:-0.77088798 40:-0.79107888 41:-0.78083009 42:-0.87631768 43:-0.64196693 44:-0.63355396 45:-0.93077712 46:-0.37685559 47:-0.88054846 48:-0.73272655 49:-0.03279099 50:0.6411537 51:-0.38387154 52:-0.88277167 53:0.53924201 54:0.66591888 55:-0.80993147 56:-0.56297448 57:-0.55269285 58:0.54540395 59:-0.55269285 60:-0.37673933 61:-0.98394023 62:-0.47792801 63:-0.97182756 64:-0.8724927 65:-0.51305606 66:0.67467334 67:-0.99993037 68:-0.6857094 69:-0.37999944 70:-0.9832288 71:-0.99101815 72:-0.98993645 73:-0.67090686 74:-0.98993645 75:-0.91356395 76:-0.58800746 77:-0.88455243 78:-0.74248433 79:-0.23228952 80:0.59848706 81:-0.39970401 82:-0.90404253 83:0.53240761 84:0.58098724 85:-0.84698808 86:-0.59214256 87:-0.56267839 88:0.55226613 89:-0.56267839 90:-0.47606905 91:-0.99065548 92:-0.52615385 93:-0.97206132 94:-0.8985063 95:-0.49890211 96:0.56706272 97:-0.99994347 98:-0.69506045 99:-0.40220981 100:-0.99949634 101:-0.99125415 102:-0.99009905 103:-0.66485467 104:-0.99009905 105:-0.86889693 106:-0.6691365 107:-0.92665305 108:-0.73251231 109:-0.29977318 110:0.58222159 111:-0.48980984 112:-0.9097537 113:0.55172067 114:0.46452312 115:-0.83626103 116:-0.58206529 117:-0.53084508 118:0.55216002 119:-0.53084508 120:-0.54122994 121:-0.99279559 122:-0.59278847 123:-0.97093467 124:-0.91191595 125:-0.4744331 126:0.42154467 127:-0.99994688 128:-0.70970329 129:-0.4524905 130:-0.99941378 131:-0.99130551 132:-0.9894002 133:-0.64803665 134:-0.9894002 135:-0.8669899 136:-0.66126292 137:-0.94030814 138:-0.64396842 139:-0.34439302 140:0.59988179 141:-0.48955712 142:-0.89427616 143:0.60953746 144:0.49321363 145:-0.80545068 146:-0.42781994 147:-0.36519363 148:0.54385699 149:-0.36519363 150:-0.56040052 151:-0.99256936 152:-0.67339523 153:-0.95975692 154:-0.91918493 155:-0.44226294 156:0.33969294 157:-0.999933 158:-0.70938959 159:-0.4843489 160:-0.99926376 161:-0.98824962 162:-0.98515253 163:-0.57921284 164:-0.98515253 165:-0.35651559 166:-0.28007438 167:-0.72664029 168:-0.52016731 169:0.71580075 170:-0.44865077 171:0.025763835 172:-0.35260212 173:0.50229618 174:-0.015159662 175:-0.81175373 176:-0.84975192 177:0.3458324 178:-0.22265436 179:0.48365757 180:0.32234545 181:0.28316514 182:-0.47647418 183:-0.013905289 184:-0.55742616 185:-0.05824869 186:-0.45370243 187:-0.55867937 188:0.99499574 189:0.54526051 190:-0.38220999 191:-0.39078342 192:-0.50502067 193:-0.11071813 194:-0.20885983 195:-0.88735155 196:-0.76904086 197:0.73632375 198:-0.49403615 199:-0.95288977 200:-0.88857162 201:0.67067803 202:-0.20565283 203:0.094165807 204:-0.053307223 205:0.4289439 206:0.47200652 207:-0.47529026 208:-0.43178299 209:0.48984665 210:-0.32334974 211:0.55288183 212:0.99130068 213:0.3797444 214:0.26707695 215:-0.69354799 216:-0.7311023 217:-0.98238164 218:-0.99536492 219:-0.7530327 220:-0.27692535 221:-0.039230931 222:-0.67977757 223:-0.88662766 224:-0.67263097 225:-0.5001019 226:-0.91370232 227:0.5560985 228:-0.17343553 229:-0.45684991 230:-0.5001019 231:-0.67824488 232:-0.35117057 233:-0.21342491 234:-0.28483686 235:-0.21321377 236:-0.52179104 237:-0.92497511 238:-0.79192064 
0 0 0 1.039758010260014 0 0 0 0 0 0:-0.93840143 1:0.79712481 2:0.53846153 3:-0.97209261 4:-0.92391275 5:-0.82305342 6:-0.95641026 7:0.7595453 8:-1 9:-0.9997267 10:-0.55894754 11:-0.029587271 12:-0.27169978 13:-0.15810932 14:-1 15:-0.41666667 16:-1 17:-1 18:-1 19:0.39673768 20:-0.65478584 21:0.20528987 22:-0.67847844 23:-1 24:-1 25:-1 26:-1 27:-1 28:-0.30004351 29:-0.72675556 30:-0.81913442 31:-0.9093689 32:-0.97268787 33:-1 34:-0.94289568 35:-1 36:-0.99544124 37:-0.95802142 38:-0.57219769 39:-0.76723171 40:-0.92874331 41:-0.86985431 42:-0.80837 43:-0.16932878 44:-0.64350887 45:-0.92087572 46:-0.2749714 47:-0.89514905 48:-0.74312979 49:0.026920372 50:0.6259858 51:-0.40593459 52:-0.8915678 53:0.66862335 54:0.59387216 55:-0.85962153 56:-0.57092067 57:-0.53525678 58:0.6759801 59:-0.53525678 60:-0.47865615 61:-0.97501535 62:-0.6240758 63:-0.96492749 64:-0.82833023 65:-0.41883649 66:0.57695952 67:-0.99988478 68:-0.60818096 69:-0.29420971 70:-0.98329945 71:-0.98756239 72:-0.98553793 73:-0.59296953 74:-0.98553793 75:-0.88340029 76:-0.54528671 77:-0.91008091 78:-0.74217125 79:-0.23090687 80:0.55816196 81:-0.32553392 82:-0.91405945 83:0.65742505 84:0.52375195 85:-0.88962772 86:-0.60161975 87:-0.52878942 88:0.68614189 89:-0.52878942 90:-0.55356446 91:-0.98587902 92:-0.68010005 93:-0.96362 94:-0.87291999 95:-0.40996189 96:0.49072584 97:-0.99990601 98:-0.62035216 99:-0.32606884 100:-0.99943136 101:-0.9877436 102:-0.98521213 103:-0.58506391 104:-0.98521213 105:-0.82519174 106:-0.65165192 107:-0.94900925 108:-0.72484787 109:-0.32013766 110:0.53660528 111:-0.39248568 112:-0.92188972 113:0.66236308 114:0.41494024 115:-0.87004706 116:-0.59784859 117:-0.48352882 118:0.67932273 119:-0.48352882 120:-0.60143416 121:-0.98919669 122:-0.75212851 123:-0.96074738 124:-0.89267657 125:-0.38659277 126:0.35603761 127:-0.99991263 128:-0.64042523 129:-0.37903224 130:-0.99922053 131:-0.98806903 132:-0.98380379 133:-0.56568737 134:-0.98380379 135:-0.81567127 136:-0.63117362 137:-0.9576018 138:-0.64631121 139:-0.32272342 140:0.52157046 141:-0.49428627 142:-0.91670436 143:0.7056132 144:0.36596326 145:-0.83503518 146:-0.53626416 147:-0.33300606 148:0.63477418 149:-0.33300606 150:-0.59889636 151:-0.98852233 152:-0.84129105 153:-0.94736821 154:-0.89622216 155:-0.37652324 156:0.23672779 157:-0.99989881 158:-0.64283336 159:-0.44624759 160:-0.99896941 161:-0.98632151 162:-0.97829142 163:-0.48839253 164:-0.97829142 165:-0.055172084 166:-0.025030627 167:-0.79888987 168:-0.51658201 169:0.79656409 170:-0.41853765 171:0.2684705 172:0.14662132 173:0.63127217 174:0.075739002 175:-0.78267787 176:-0.82258622 177:0.42327614 178:0.053417232 179:0.56352685 180:0.54765156 181:0.63381456 182:-0.40806108 183:0.076662116 184:-0.50548974 185:0.11888048 186:-0.28320287 187:-0.68440292 188:0.97893541 189:0.64981271 190:-0.40355961 191:-0.37571188 192:-0.500886 193:-0.033799699 194:-0.10465457 195:-0.82428991 196:-0.26741147 197:0.61007628 198:0.0051402772 199:-0.71982617 200:-0.62082798 201:0.00084187103 202:0.010732465 203:0.21868569 204:-0.17827954 205:0.14980158 206:0.45220539 207:-0.4481571 208:-0.17744653 209:0.58733358 210:-0.32534387 211:0.68013006 212:0.97760534 213:0.47955054 214:0.31674149 215:-0.25455405 216:-0.26030912 217:-0.97127688 218:-0.98611204 219:-0.75309741 220:-0.28268972 221:-0.039138265 222:-0.59686128 223:-0.86298207 224:-0.52016809 225:-0.38691514 226:-0.89946023 227:0.68745177 228:-0.1634616 229:-0.27404635 230:-0.38691514 231:-0.66232522 232:-0.31103679 233:-0.65478584 234:0.20528962 235:-0.67847855 236:-0.51701493 237:-0.90293628 238:-0.80109658 
0 0 0 0 0 0.52384699216122 0 0 0 0:-0.87643717 1:0.85324152 2:-0.23076924 3:-0.95235586 4:-0.89717295 5:-0.93404555 6:-0.93589744 7:0.65881457 8:-1 9:-0.99846027 10:-0.62502532 11:-0.23048365 12:-0.00078034273 13:0.36125655 14:-1 15:-0.083333337 16:-1 17:-1 18:-1 19:-0.72159856 20:0.22048234 21:-0.61034101 22:0.1898187 23:-0.89162486 24:-1 25:-1 26:-1 27:-1 28:-0.090283294 29:-0.75969427 30:-0.85645335 31:-0.7287665 32:-0.76189051 33:-0.89056088 34:-1 35:-0.95505823 36:-0.99362794 37:-0.94441216 38:-0.49420341 39:-0.81572612 40:-0.88429591 41:-0.75804876 42:-0.43298303 43:-0.87012511 44:-0.62183459 45:-0.94155038 46:-0.19501814 47:-0.87161595 48:-0.7763288 49:0.10681979 50:0.66606105 51:-0.48128753 52:-0.91638345 53:0.59246615 54:0.47122336 55:-0.86947925 56:-0.63194279 57:-0.6023558 58:0.58620922 59:-0.6023558 60:-0.015434197 61:-0.98565158 62:-0.37596457 63:-0.97870526 64:-0.89452936 65:-0.64060388 66:0.73563426 67:-0.99996527 68:-0.72697782 69:-0.55704251 70:-0.98353458 71:-0.99411914 72:-0.99294342 73:-0.71255726 74:-0.99294342 75:-0.91019407 76:-0.54079913 77:-0.88932139 78:-0.77089109 79:-0.20966119 80:0.57163465 81:-0.4183524 82:-0.93426215 83:0.56750043 84:0.40089669 85:-0.90736018 86:-0.65102701 87:-0.59412061 88:0.58469258 89:-0.59412061 90:-0.10404088 91:-0.9924666 92:-0.4950121 93:-0.97731254 94:-0.92247988 95:-0.6295996 96:0.67469395 97:-0.99997324 98:-0.73748385 99:-0.56806306 100:-0.99983821 101:-0.99420015 102:-0.9926046 103:-0.70795462 104:-0.9926046 105:-0.85814817 106:-0.65002141 107:-0.94452258 108:-0.74100583 109:-0.3133178 110:0.54321389 111:-0.41230365 112:-0.93934216 113:0.54580293 114:0.31768451 115:-0.88160736 116:-0.65077682 117:-0.54326417 118:0.55071377 119:-0.54326417 120:-0.17896489 121:-0.99425621 122:-0.68923737 123:-0.97296678 124:-0.93577386 125:-0.60801194 126:0.59322602 127:-0.99997649 128:-0.75517349 129:-0.59258135 130:-0.99973484 131:-0.99452443 132:-0.99115368 133:-0.69717166 134:-0.99115368 135:-0.87432261 136:-0.64351502 137:-0.95503794 138:-0.63800436 139:-0.32045189 140:0.56189922 141:-0.51752046 142:-0.91684832 143:0.54869046 144:0.34809474 145:-0.82595825 146:-0.57646435 147:-0.3864747 148:0.46910111 149:-0.3864747 150:-0.30568135 151:-0.99384995 152:-0.81269802 153:-0.96102308 154:-0.93269351 155:-0.5805409 156:0.44753503 157:-0.999967 158:-0.76275399 159:-0.62712927 160:-0.99954877 161:-0.99359094 162:-0.98759736 163:-0.65559037 164:-0.98759736 165:-0.64076451 166:-0.32351532 167:-0.67497777 168:-0.47594861 169:0.80842228 170:-0.74753743 171:0.339552 172:0.012099461 173:0.50099701 174:0.072710622 175:-0.85704364 176:-0.84963281 177:0.17709119 178:-0.24746782 179:-0.069921168 180:-0.66952687 181:0.026515453 182:-0.036520168 183:0.33884903 184:-0.40862849 185:0.089062208 186:-0.58846759 187:-0.62824723 188:0.9881006 189:0.66287871 190:-0.48622854 191:-0.27122633 192:-0.46426462 193:0.073685979 194:-0.046631285 195:-0.78843511 196:-0.55442124 197:0.47862869 198:0.33270494 199:-0.66683579 200:-0.67140756 201:-0.29895714 202:0.16452845 203:-0.17261686 204:-0.039348761 205:0.58031455 206:0.39418277 207:-0.2803277 208:0.14973395 209:0.65416282 210:-0.62844054 211:0.61537442 212:0.91511221 213:0.39900755 214:0.2279494 215:-0.89143586 216:-0.91426169 217:-0.99805019 218:-0.99964743 219:-0.75300295 220:-0.27444908 221:-0.039223358 222:-0.720626 223:-0.91603895 224:-0.68545987 225:-0.50597208 226:-0.94712668 227:0.63320542 228:-0.20233101 229:-0.38746626 230:-0.50597208 231:-0.80825642 232:-0.29765886 233:0.22048234 234:-0.61034109 235:0.18981822 236:-0.47701493 237:-0.90399433 238:-0.97191053 
0 0 0 0 0 0 0 0 20.30127145495134 0:-0.91883544 1:0.71134492 2:-0.076923084 3:-0.86429637 4:-0.94336151 5:-0.86225235 6:-0.92521368 7:0.81559099 8:-0.66666667 9:-0.99430888 10:-0.44305305 11:-0.22052417 12:-0.47008375 13:-0.28441741 14:-1 15:-0.5 16:-1 17:-1 18:-1 19:0.23501861 20:-0.55798757 21:0.089210363 22:-0.55997424 23:-1 24:-1 25:-1 26:-0.95878321 27:-1 28:-0.14369978 29:-0.60966051 30:-0.83757205 31:-0.86301981 32:-0.96320937 33:-0.92381115 34:-1 35:-0.97318226 36:-0.99704262 37:-0.97420073 38:-0.37957409 39:-0.75686234 40:-0.90488581 41:-0.93074493 42:-0.87559917 43:-0.28516547 44:-0.53663538 45:-0.92718351 46:-0.20942819 47:-0.84379426 48:-0.84010571 49:0.099787121 50:0.62714338 51:-0.46460126 52:-0.92737016 53:0.69145704 54:0.44630702 55:-0.83635641 56:-0.69662389 57:-0.67132697 58:0.69203022 59:-0.67132697 60:-0.10847279 61:-0.98412206 62:-0.34285247 63:-0.98217391 64:-0.88034999 65:-0.63133083 66:0.69831557 67:-0.99997149 68:-0.72588637 69:-0.55458145 70:-0.98341362 71:-0.99519927 72:-0.99395775 73:-0.7129744 74:-0.99395775 75:-0.89291719 76:-0.58641966 77:-0.85725298 78:-0.84497867 79:-0.24765105 80:0.50545853 81:-0.3872522 82:-0.94349579 83:0.67350547 84:0.36074785 85:-0.8942679 86:-0.71897404 87:-0.67564002 88:0.70728244 89:-0.67564002 90:-0.14599731 91:-0.99317921 92:-0.43833835 93:-0.98204393 94:-0.92640386 95:-0.64211125 96:0.68667111 97:-0.99997819 98:-0.73521978 99:-0.57906364 100:-0.99978242 101:-0.9952812 102:-0.99388645 103:-0.70443708 104:-0.99388645 105:-0.82607516 106:-0.72717888 107:-0.91246155 108:-0.83446899 109:-0.40212525 110:0.45819241 111:-0.37806737 112:-0.94941129 113:0.67125116 114:0.26967598 115:-0.90568275 116:-0.69878138 117:-0.64151595 118:0.71894171 119:-0.64151595 120:-0.15063822 121:-0.99581491 122:-0.56478173 123:-0.98004775 124:-0.94750175 125:-0.63862821 126:0.65186327 127:-0.99998054 128:-0.75015528 129:-0.60765219 130:-0.99978774 131:-0.99508826 132:-0.99292421 133:-0.68546463 134:-0.99292421 135:-0.8145681 136:-0.74374683 137:-0.93852726 138:-0.75802467 139:-0.46716081 140:0.46056253 141:-0.36303189 142:-0.94027799 143:0.72404402 144:0.32890299 145:-0.87669179 146:-0.57636844 147:-0.47353032 148:0.71997707 149:-0.47353032 150:-0.18332197 151:-0.99572498 152:-0.7001042 153:-0.96946306 154:-0.94963489 155:-0.61572696 156:0.56927127 157:-0.99997455 158:-0.75095638 159:-0.62767427 160:-0.99968497 161:-0.99343238 162:-0.98919769 163:-0.62424214 164:-0.98919769 165:-0.12539405 166:0.050892033 167:-0.81602074 168:-0.64266507 169:0.80897047 170:-0.74828417 171:-0.048916306 172:0.052983718 173:0.63143473 174:-0.3387347 175:-0.92094397 176:-0.93820577 177:0.20294289 178:-0.4432746 179:0.10232001 180:-0.38441142 181:0.78109005 182:-0.43440926 183:0.48902085 184:-0.4305197 185:0.34795209 186:-0.59051075 187:-0.72761194 188:0.96127314 189:0.81322501 190:-0.78971928 191:-0.41371532 192:-0.62492617 193:0.094752067 194:-0.13324012 195:-0.69532421 196:0.45517073 197:0.714092 198:0.25840945 199:-0.70676843 200:-0.6841093 201:-0.10873257 202:0.14834246 203:0.17481011 204:-0.18459444 205:0.35141309 206:0.63815657 207:-0.21540319 208:0.085328402 209:0.64263369 210:-0.49144113 211:0.70574028 212:0.96938555 213:0.44047725 214:0.26201067 215:-0.36577143 216:-0.3990626 217:-0.97723073 218:-0.98621572 219:-0.75290151 220:-0.27015784 221:-0.039151997 222:-0.72437238 223:-0.9244639 224:-0.73628559 225:-0.55988114 226:-0.89829069 227:0.72701936 228:-0.27470635 229:-0.46587463 230:-0.55988114 231:-0.53948525 232:-0.39799331 233:-0.55798757 234:0.089210136 235:-0.55997441 236:-0.64238806 237:-0.79387789 238:-0.87406004 
0 0 0 0 0 0 0 0 103.9968975269924 0:-0.81319161 1:0.75635979 2:-0.69230769 3:-0.84911289 4:-0.96333378 5:-0.95125321 6:-0.83333333 7:0.63320506 8:-0.66666667 9:-0.98835579 10:-0.71734958 11:-0.33541053 12:-0.293445 13:0.061525376 14:-1 15:-0.33333334 16:-1 17:-1 18:-1 19:-0.57597236 20:0.052772448 21:-0.47121963 22:0.073437241 23:-1 24:-1 25:-1 26:-1 27:-0.80981165 28:-0.27741703 29:-0.65346641 30:-0.84556651 31:-0.91736374 32:-0.96109694 33:-1 34:-0.92134202 35:-0.96203844 36:-0.99686028 37:-0.92696027 38:-0.55922747 39:-0.76463606 40:-0.91400253 41:-0.88660788 42:-0.74946024 43:-0.75601556 44:-0.52318644 45:-0.94842077 46:-0.11884567 47:-0.91074874 48:-0.69797838 49:0.19229959 50:0.74747197 51:-0.52128856 52:-0.8537993 53:0.71130902 54:0.71660118 55:-0.82465256 56:-0.49321784 57:-0.46334718 58:0.7027121 59:-0.46334718 60:-0.56327947 61:-0.9721659 62:-0.62301174 63:-0.96586809 64:-0.80710693 65:-0.37269908 66:0.52359443 67:-0.99986836 68:-0.57756085 69:-0.24917005 70:-0.98303725 71:-0.98669139 72:-0.9850325 73:-0.56261028 74:-0.9850325 75:-0.92722996 76:-0.44341095 77:-0.92042225 78:-0.70353131 79:-0.09048774 80:0.67065979 81:-0.49888561 82:-0.88525388 83:0.70892032 84:0.61323202 85:-0.84474877 86:-0.53474346 87:-0.46588168 88:0.7088836 89:-0.46588168 90:-0.63802065 91:-0.98407614 92:-0.66431134 93:-0.96571221 94:-0.85633794 95:-0.36000269 96:0.4237352 97:-0.99989272 98:-0.58996286 99:-0.29665088 100:-0.99921398 101:-0.9869533 102:-0.98511231 103:-0.55405169 104:-0.98511231 105:-0.87966427 106:-0.58835569 107:-0.95526261 108:-0.67878148 109:-0.22417868 110:0.62449031 111:-0.48465765 112:-0.89409752 113:0.72656999 114:0.50055003 115:-0.8189676 116:-0.52187318 117:-0.40269899 118:0.71367686 119:-0.40269899 120:-0.67129974 121:-0.98850241 122:-0.7271649 123:-0.96312184 124:-0.88295775 125:-0.34705181 126:0.28856407 127:-0.99989869 128:-0.60937352 129:-0.35401071 130:-0.99901382 131:-0.98699992 132:-0.98361115 133:-0.52925622 134:-0.98361115 135:-0.88933972 136:-0.56000524 137:-0.95556105 138:-0.56153383 139:-0.22303879 140:0.63126029 141:-0.60887122 142:-0.86449353 143:0.76177863 144:0.53326837 145:-0.76103587 146:-0.36890612 147:-0.20087024 148:0.64824281 149:-0.20087024 150:-0.68806928 151:-0.98734988 152:-0.79157969 153:-0.94805713 154:-0.88395366 155:-0.31042652 156:0.13574295 157:-0.99985955 158:-0.61207086 159:-0.3874267 160:-0.9986676 161:-0.98302926 162:-0.97719303 163:-0.44761625 164:-0.97719303 165:-0.35512169 166:-0.29342161 167:-0.85165045 168:-0.67134748 169:0.70146507 170:-0.30151896 171:0.14944352 172:-0.1874508 173:0.59746701 174:0.12814085 175:-0.82934891 176:-0.88176258 177:0.39578735 178:-0.074429494 179:0.4887587 180:0.17011699 181:0.32629232 182:-0.3894372 183:0.27176543 184:-0.35834463 185:-0.012926669 186:-0.32554029 187:-0.71840483 188:0.88092205 189:0.61051798 190:-0.31957459 191:-0.5300828 192:-0.64855286 193:0.043926063 194:-0.0010854473 195:-0.86576033 196:-0.45133681 197:0.85470487 198:-0.18473193 199:-0.86169399 200:-0.82265807 201:0.37863531 202:0.054249394 203:0.063690559 204:-0.22517003 205:0.44252276 206:0.58303472 207:-0.3529624 208:0.012835486 209:0.71508483 210:-0.021817262 211:0.71090807 212:0.98620726 213:0.5435842 214:0.39389371 215:-0.79360737 216:-0.85662327 217:-0.92545562 218:-0.97906488 219:-0.75267633 220:-0.26998912 221:-0.039468164 222:-0.57010342 223:-0.86018402 224:-0.73104228 225:-0.6666205 226:-0.83766293 227:0.71818316 228:-0.050822123 229:-0.6062883 230:-0.6666205 231:-0.44768082 232:-0.49832776 233:0.052772448 234:-0.47121974 235:0.073436809 236:-0.66686567 237:-0.39633485 238:-0.83106741 
0 0 0 22.45967999018242 0 0 0 0 0 0:-0.90247703 1:0.87475947 2:-0.23076924 3:-0.96364127 4:-0.94996418 5:-0.90667002 6:-0.94358974 7:0.7595453 8:-1 9:-0.99920704 10:-0.59292427 11:-0.025349897 12:-0.099315566 13:0.037845252 14:-1 15:-0.16666667 16:-1 17:-1 18:-1 19:-0.20108117 20:-0.26848807 21:-0.22165946 22:-0.25354292 23:-1 24:-1 25:-1 26:-1 27:-1 28:-0.076488543 29:-0.59680301 30:-0.84609472 31:-0.80132163 32:-0.94816954 33:-1 34:-1 35:-1 36:-0.99799625 37:-0.95727082 38:-0.44516181 39:-0.76624764 40:-0.93069498 41:-0.81533924 42:-0.74515897 43:-0.57819508 44:-0.70069774 45:-0.95081477 46:-0.36388936 47:-0.86702878 48:-0.72145705 49:-0.026343611 50:0.65552492 51:-0.4137952 52:-0.87594399 53:0.36728881 54:0.64192151 55:-0.76117995 56:-0.58750441 57:-0.58432035 58:0.36224976 59:-0.58432035 60:-0.16759748 61:-0.99044905 62:-0.2050426 63:-0.97926718 64:-0.92144277 65:-0.65997577 66:0.79803764 67:-0.99997221 68:-0.79361396 69:-0.54555683 70:-0.98328144 71:-0.99496317 72:-0.99445138 73:-0.78077848 74:-0.99445138 75:-0.92721349 76:-0.65477206 77:-0.86514258 78:-0.72382002 79:-0.32586282 80:0.58266132 81:-0.32254067 82:-0.88802644 83:0.34860256 84:0.59769812 85:-0.81607697 86:-0.58280227 87:-0.58333792 88:0.37664669 89:-0.58333792 90:-0.27569798 91:-0.9956917 92:-0.24058404 93:-0.97904872 94:-0.9452132 95:-0.64739812 96:0.75632519 97:-0.99997535 98:-0.80141918 99:-0.53631695 100:-0.99966959 101:-0.99463513 102:-0.99441895 103:-0.77604382 104:-0.99441895 105:-0.89697892 106:-0.72999962 107:-0.91144629 108:-0.69484464 109:-0.40741516 110:0.59135294 111:-0.34116008 112:-0.88619024 113:0.34793084 114:0.52891523 115:-0.8039901 116:-0.5320082 117:-0.53367763 118:0.37105815 119:-0.53367763 120:-0.35418495 121:-0.99671249 122:-0.35957513 123:-0.97653138 124:-0.95264155 125:-0.61571806 126:0.67080311 127:-0.99997453 128:-0.81330876 129:-0.55481956 130:-0.99965889 131:-0.99423656 132:-0.99359561 133:-0.76595946 134:-0.99359561 135:-0.90044694 136:-0.73030277 137:-0.91791532 138:-0.63763618 139:-0.43656401 140:0.60970886 141:-0.40855932 142:-0.87770834 143:0.37862956 144:0.56408568 145:-0.78991756 146:-0.37878587 147:-0.43585595 148:0.34362903 149:-0.43585595 150:-0.36410097 151:-0.99677359 152:-0.34940834 153:-0.97198399 154:-0.95511382 155:-0.6012494 156:0.58800563 157:-0.99996934 158:-0.81663617 159:-0.58897669 160:-0.99961157 161:-0.99262045 162:-0.99214974 163:-0.72633624 164:-0.99214974 165:-0.25120831 166:-0.1614092 167:-0.6669084 168:-0.44248581 169:0.76235284 170:-0.55668537 171:0.11133998 172:-0.21324286 173:0.57538847 174:0.15181095 175:-0.48418794 176:-0.49550998 177:0.8512139 178:-0.0060221921 179:0.16289494 180:-0.24172048 181:0.41869411 182:-0.050422368 183:0.17999183 184:-0.53596701 185:-0.0071169037 186:-0.50609538 187:-0.40036945 188:0.9676806 189:0.42512828 190:-0.34724771 191:-0.42683111 192:-0.4264619 193:-0.29320819 194:-0.3611283 195:-0.61138653 196:-0.3108288 197:0.47461675 198:0.2637607 199:-0.81358034 200:-0.75463403 201:-0.40191826 202:0.44104488 203:0.33350105 204:0.11227191 205:0.40955634 206:0.55947173 207:-0.34071525 208:-0.1929067 209:0.27505587 210:-0.475738 211:0.38538748 212:0.9809469 213:0.23708008 214:0.1763672 215:-0.63660344 216:-0.68883951 217:-0.94064552 218:-0.9685924 219:-0.75185508 220:-0.25321765 221:-0.039260759 222:-0.7931842 223:-0.93206981 224:-0.68881332 225:-0.40437711 226:-0.94957935 227:0.39173567 228:-0.22774875 229:-0.37648341 230:-0.40437711 231:-0.76985617 232:-0.25752508 233:-0.26848807 234:-0.22165963 235:-0.25354321 236:-0.44179104 237:-0.43577127 238:-0.99516013 
0 0 0 0 0 0 0 0 12.15044241622649 0:-0.73252744 1:0.67829806 2:-0.69230769 3:-0.84456245 4:-0.82789231 5:-0.9073811 6:-0.89102564 7:0.7595453 8:-1 9:-0.99805128 10:-0.63566647 11:-0.63429979 12:-0.4941836 13:0.074712533 14:-1 15:-0.66666667 16:-1 17:-1 18:-1 19:-0.44859655 20:-0.069004851 21:-0.37153051 22:-0.031874134 23:-1 24:-1 25:-1 26:-1 27:-1 28:-0.60400143 29:-0.85445792 30:-0.96329491 31:-0.93737192 32:-0.98257889 33:-1 34:-1 35:-0.94590478 36:-0.94631084 37:-0.32346946 38:-0.66882146 39:-0.82295744 40:-0.88248168 41:-0.72681361 42:0.11756454 43:-0.67872973 44:-0.14617904 45:-0.9540098 46:0.087946184 47:-0.92568039 48:-0.66963008 49:0.36590708 50:0.74671797 51:-0.61931706 52:-0.85998927 53:0.73361016 54:0.67939353 55:-0.79958549 56:-0.47832054 57:-0.42102054 58:0.70689223 59:-0.42102054 60:-0.64233916 61:-0.96527292 62:-0.66033813 63:-0.97007443 64:-0.75713274 65:-0.32041354 66:0.39875268 67:-0.99985775 68:-0.4408772 69:-0.22721808 70:-0.98281188 71:-0.98502312 72:-0.98307917 73:-0.42209108 74:-0.98307917 75:-0.92583961 76:-0.29059334 77:-0.93973559 78:-0.67159013 79:0.052402859 80:0.64666021 81:-0.57439493 82:-0.8853025 83:0.74228242 84:0.57350286 85:-0.81776598 86:-0.53084428 87:-0.41776562 88:0.71158817 89:-0.41776562 90:-0.69035708 91:-0.97820885 92:-0.71539461 93:-0.96992444 94:-0.81633628 95:-0.30772577 96:0.2827039 97:-0.99987941 98:-0.45609326 99:-0.28710098 100:-0.99896132 101:-0.98585397 102:-0.98311329 103:-0.40970701 104:-0.98311329 105:-0.86497951 106:-0.45635556 107:-0.97285132 108:-0.63599297 109:-0.081977588 110:0.55012497 111:-0.57172378 112:-0.88581433 113:0.75251406 114:0.44128293 115:-0.7836581 116:-0.5424715 117:-0.34529651 118:0.68971037 119:-0.34529651 120:-0.70281712 121:-0.98371419 122:-0.80285631 123:-0.96672715 124:-0.85156585 125:-0.30842407 126:0.14893965 127:-0.99987778 128:-0.48461464 129:-0.3548991 130:-0.99870929 131:-0.98666967 132:-0.98101098 133:-0.37953367 134:-0.98101098 135:-0.86050435 136:-0.4586524 137:-0.96230574 138:-0.49034132 139:-0.10210385 140:0.50176836 141:-0.71774329 142:-0.82895427 143:0.71039793 144:0.49147438 145:-0.69618546 146:-0.38598073 147:-0.15089592 148:0.53918772 149:-0.15089592 150:-0.7232047 151:-0.98401619 152:-0.8254813 153:-0.95601167 154:-0.86197874 155:-0.28968693 156:0.016503752 157:-0.9998103 158:-0.49913908 159:-0.37082013 160:-0.99822832 161:-0.98242571 162:-0.97528925 163:-0.28118412 164:-0.97528925 165:-0.39651507 166:-0.15584452 167:-0.93774989 168:-0.85479534 169:0.61288752 170:-0.35117359 171:-0.00059024018 172:0.065295308 173:0.71949773 174:-0.039348854 175:-0.85923014 176:-0.82799052 177:0.5660586 178:-0.06772094 179:-0.11651363 180:-0.40808609 181:0.74856209 182:-0.42717319 183:0.93400113 184:0.17595216 185:0.038977293 186:-0.55248196 187:-0.73291334 188:0.93980526 189:0.62794647 190:-0.39076253 191:-0.70433997 192:-0.83461311 193:0.34142297 194:0.17557214 195:-0.74533072 196:-0.26769791 197:0.64997173 198:0.069074672 199:-0.80076798 200:-0.79226919 201:0.37737126 202:0.076997996 203:-0.13139186 204:-0.23752479 205:0.44274181 206:0.70115025 207:-0.33034704 208:0.027151571 209:0.54156454 210:0.32658767 211:0.71154987 212:0.96907822 213:0.55938685 214:0.42134666 215:-0.72605074 216:-0.80161573 217:-0.89127702 218:-0.97183448 219:-0.75322678 220:-0.27869191 221:-0.039737059 222:-0.43009822 223:-0.84982286 224:-0.8310556 225:-0.84491299 226:-0.67271521 227:0.71718486 228:-0.015069695 229:-0.79735322 230:-0.84491299 231:-0.1162752 232:-0.69899666 233:-0.069004851 234:-0.37153064 235:-0.031874524 236:-0.85492537 237:-0.58747709 238:-0.54577595 
0 0 0 0 0 1.961430618269182 0 0 0 0:-0.65991849 1:0.82173494 2:-0.69230769 3:-0.89917412 4:-0.93286419 5:-0.92054751 6:-0.92307692 7:0.68269918 8:-1 9:-0.99846027 10:-0.57283875 11:-0.5460817 12:-0.44141923 13:0.057531448 14:-1 15:-0.66666667 16:-1 17:-1 18:-1 19:-0.064061189 20:-0.36560121 21:-0.14673006 22:-0.37360097 23:-0.73889028 24:-1 25:-1 26:-1 27:-1 28:-0.47501052 29:-0.84519227 30:-0.89284711 31:-0.91166406 32:-0.97312809 33:-0.86816341 34:-1 35:-0.93812638 36:-0.98464771 37:-0.45932545 38:-0.61520044 39:-0.7415629 40:-0.74087004 41:-0.7600928 42:-0.16206412 43:-0.52657957 44:-0.24785895 45:-0.97000339 46:-0.15567253 47:-0.88827598 48:-0.6129433 49:0.15648605 50:0.78692339 51:-0.53047183 52:-0.82025003 53:0.28271956 54:0.76699984 55:-0.67466291 56:-0.45530871 57:-0.48847469 58:0.25198688 59:-0.48847469 60:-0.5674101 61:-0.97696886 62:-0.46624375 63:-0.97218253 64:-0.82427448 65:-0.40757174 66:0.5556449 67:-0.99988391 68:-0.61661591 69:-0.28190042 70:-0.98257007 71:-0.98800298 72:-0.98840216 73:-0.60243867 74:-0.98840216 75:-0.95914083 76:-0.43048638 77:-0.87013395 78:-0.64666025 79:-0.047421978 80:0.74242657 81:-0.55990324 82:-0.83929178 83:0.28573457 84:0.68696601 85:-0.72244059 86:-0.4762557 87:-0.52947864 88:0.24464984 89:-0.52947864 90:-0.65667134 91:-0.98611381 92:-0.45100023 93:-0.97395753 94:-0.86245474 95:-0.37879188 96:0.4298451 97:-0.99989553 98:-0.62825276 99:-0.31448404 100:-0.99891915 101:-0.98783061 102:-0.98915605 103:-0.59658344 104:-0.98915605 105:-0.93610863 106:-0.48470478 107:-0.9047598 108:-0.6660743 109:-0.058601394 110:0.72170312 111:-0.69270583 112:-0.85214966 113:0.30072095 114:0.52930681 115:-0.7174178 116:-0.50332786 117:-0.55639699 118:0.19233448 119:-0.55639699 120:-0.70693629 121:-0.98750567 122:-0.47625292 123:-0.9774076 124:-0.87172901 125:-0.34916532 126:0.21886043 127:-0.99990456 128:-0.64793921 129:-0.39436032 130:-0.99888277 131:-0.98895684 132:-0.99010557 133:-0.58469891 134:-0.99010557 135:-0.90740121 136:-0.54874253 137:-0.9320801 138:-0.5249477 139:-0.19626337 140:0.64198616 141:-0.61729779 142:-0.8042027 143:0.25521294 144:0.55295394 145:-0.68201937 146:-0.36766106 147:-0.41266436 148:0.10456381 149:-0.41266436 150:-0.68421194 151:-0.98921477 152:-0.5864168 153:-0.96867398 154:-0.8941457 155:-0.35152404 156:0.18558163 157:-0.99986432 158:-0.66180522 159:-0.42838432 160:-0.99868525 161:-0.98593063 162:-0.9865522 163:-0.52053843 164:-0.9865522 165:-0.29333561 166:0.008254291 167:-0.79383172 168:-0.81953989 169:0.30139825 170:-0.2639016 171:-0.24461528 172:-0.29395508 173:0.4035883 174:-0.033426547 175:-0.50425656 176:-0.70346375 177:0.77205475 178:-0.011947116 179:0.050911077 180:-0.31305611 181:0.29099456 182:-0.1591094 183:0.41822861 184:0.02690849 185:-0.23272747 186:-0.61902135 187:-0.29169428 188:0.96691594 189:0.24691931 190:-0.13332757 191:-0.77196907 192:-0.8003544 193:-0.10281593 194:-0.077421587 195:-0.57906928 196:0.35044157 197:0.71602188 198:0.25991745 199:-0.81803579 200:-0.83025878 201:-0.076544759 202:0.51940252 203:0.26722746 204:-0.21039816 205:0.33298403 206:0.50512114 207:-0.38059811 208:-0.24418735 209:0.22812284 210:0.030391835 211:0.27101381 212:0.97421881 213:0.22882091 214:0.24594413 215:-0.58999122 216:-0.62055257 217:-0.99345665 218:-0.99696327 219:-0.75299968 220:-0.27433348 221:-0.039218914 222:-0.61019819 223:-0.87435671 224:-0.84166824 225:-0.79751498 226:-0.80204159 227:0.27461115 228:-0.084454031 229:-0.7978893 230:-0.79751498 231:-0.47432645 232:-0.63879599 233:-0.36560121 234:-0.14673024 235:-0.37360122 236:-0.82029851 237:-0.8934613 238:-0.89752168 
0 0 0 0 0.008172801905609147 0 0.03987394942283037 0 0 0:-0.86188669 1:0.90465368 2:-0.53846154 3:-0.96983888 4:-0.94605808 5:-0.90076547 6:-0.93589744 7:0.7595453 8:-1 9:-0.99955091 10:-0.62041644 11:-0.23048365 12:-0.048771221 13:0.29587763 14:-1 15:-4.1666667e-09 16:-1 17:-1 18:-1 19:-0.52821718 20:0.005034247 21:-0.45437228 22:0.005612138 23:-1 24:-0.92653088 25:-1 26:-1 27:-1 28:0.73430782 29:-0.32173606 30:-0.78538409 31:-0.66922412 32:-0.9268403 33:-1 34:-0.89324989 35:-1 36:-0.99573896 37:-0.97315355 38:-0.018722826 39:-0.66099048 40:-0.90091873 41:-0.83883192 42:-0.84128527 43:-0.76362832 44:-0.6049529 45:-0.78714812 46:0.027019253 47:-0.7510863 48:-0.91683469 49:0.34162133 50:0.019277969 51:-0.6054505 52:-0.96301544 53:0.61064876 54:0.10021668 55:-0.82792262 56:-0.80973724 57:-0.79581324 58:0.57915242 59:-0.79581324 60:0.26067333 61:-0.98904956 62:0.73299651 63:-0.99457145 64:-0.90604381 65:-0.85831053 66:0.75634503 67:-0.9999953 68:-0.90361024 69:-0.84143512 70:-0.98337667 71:-0.99930223 72:-0.99949046 73:-0.90007357 74:-0.99949046 75:-0.67367348 76:-0.55669898 77:-0.77538345 78:-0.92384595 79:-0.20272581 80:-0.089498217 81:-0.39049255 82:-0.97217875 83:0.58097141 84:0.010065542 85:-0.9100821 86:-0.83044799 87:-0.8054809 88:0.59754571 89:-0.8054809 90:0.18196185 91:-0.99642275 92:0.77535309 93:-0.99606686 94:-0.94916138 95:-0.85701198 96:0.76818584 97:-0.99999542 98:-0.9085267 99:-0.8451291 100:-0.99982837 101:-0.99921615 102:-0.9997119 103:-0.89809636 104:-0.9997119 105:-0.40104051 106:-0.77823391 107:-0.86418925 108:-0.91738527 109:-0.48553461 110:-0.19242027 111:-0.20189028 112:-0.9732081 113:0.57088262 114:-0.017340441 115:-0.93546977 116:-0.8111439 117:-0.78033906 118:0.64086979 119:-0.78033906 120:0.20231404 121:-0.99854438 122:0.63922208 123:-0.99682862 124:-0.97305987 125:-0.86099812 126:0.7998665 127:-0.99999524 128:-0.9145426 129:-0.84911945 130:-0.99989014 131:-0.99906968 132:-0.9997083 133:-0.88966146 134:-0.9997083 135:-0.34738293 136:-0.84203324 137:-0.89578055 138:-0.88585179 139:-0.61914168 140:-0.21157103 141:-0.040834052 142:-0.9675744 143:0.62224459 144:0.093460278 145:-0.92568943 146:-0.70255385 147:-0.67962923 148:0.68247906 149:-0.67962923 150:0.31061741 151:-0.99924543 152:0.61285636 153:-0.99562609 154:-0.98666257 155:-0.86574297 156:0.86211659 157:-0.9999942 158:-0.91605525 159:-0.85623454 160:-0.99989709 161:-0.99847981 162:-0.99935307 163:-0.86399747 164:-0.99935307 165:-0.63661923 166:-0.20938311 167:-0.57699138 168:-0.47953391 169:0.73130644 170:-0.90228407 171:-0.36189987 172:-0.52887474 173:0.71087272 174:-0.31147122 175:-0.95480092 176:-0.96495338 177:0.27362643 178:-0.42251191 179:-0.41561998 180:-0.77375041 181:0.51889714 182:-0.52103278 183:0.77816974 184:-0.01336412 185:0.65916355 186:-0.99886908 187:-0.68183499 188:0.96543772 189:0.86309876 190:-1 191:-0.28246749 192:-0.46249262 193:-0.11608034 194:-0.33710155 195:-0.70964391 196:-0.3688506 197:0.74214454 198:-0.44184996 199:-0.94438583 200:-0.84707325 201:0.28126637 202:-0.2983459 203:-0.15300546 204:-0.27943896 205:0.53877963 206:0.35499239 207:0.45888271 208:0.97917116 209:0.5415022 210:-1 211:0.63830761 212:0.99232476 213:0.33126526 214:0.1476735 215:-0.80020507 216:-0.84145754 217:-0.98414069 218:-0.99656298 219:-0.75300889 220:-0.27464076 221:-0.039231418 222:-0.89839472 223:-0.98584072 224:-0.81073839 225:-0.48703421 226:-0.96408158 227:0.65633882 228:-0.48860389 229:-0.37329831 230:-0.48703421 231:-0.71608626 232:-0.29765886 233:0.005034247 234:-0.45437239 235:0.0056117408 236:-0.47880597 237:-0.77556707 238:-0.91303363 
0 0 0 5.194163545046455 0 0 0 0 0 0:-0.91583884 1:0.74082924 2:-0.23076924 3:-0.89739172 4:-0.84468938 5:-0.89901366 6:-0.88974359 7:0.55248769 8:-0.66666667 9:-0.99358702 10:-0.67617967 11:-0.19721347 12:-0.2100475 13:0.045266566 14:-4.9999997e-08 15:-0.33333334 16:0.9999998 17:-1 18:-1 19:-0.38929196 20:-0.12047179 21:-0.33848489 22:-0.092041576 23:-1 24:-1 25:-0.87331276 26:-1 27:-1 28:0.18632246 29:-0.53499624 30:-0.74879178 31:-0.71092424 32:-0.94033696 33:-1 34:-0.9456827 35:-0.97378563 36:-1 37:-0.97688276 38:-0.35314053 39:-0.7638817 40:-0.88132391 41:-0.85341239 42:-0.75814512 43:-0.66200681 44:-0.61176911 45:-0.87856065 46:0.15177554 47:-0.87254216 48:-0.77786399 49:0.41371642 50:0.30054895 51:-0.59425061 52:-0.89620181 53:0.6708432 54:0.52981084 55:-0.78406497 56:-0.60717001 57:-0.59389642 58:0.63492983 59:-0.59389642 60:0.26428385 61:-0.99223254 62:0.13716009 63:-0.99030178 64:-0.9356939 65:-0.82073346 66:0.8344495 67:-0.99999399 68:-0.8432402 69:-0.77003348 70:-0.98346708 71:-0.9982989 72:-0.99786116 73:-0.83223216 74:-0.99786116 75:-0.8115169 76:-0.46674543 77:-0.88355136 78:-0.77883471 79:-0.12469991 80:0.19899567 81:-0.41192109 82:-0.91153237 83:0.64896587 84:0.45969271 85:-0.84337256 86:-0.62183584 87:-0.59002253 88:0.6524541 89:-0.59002253 90:0.2445782 91:-0.99753081 92:-0.071030118 93:-0.98956513 94:-0.96850837 95:-0.82471679 96:0.8598367 97:-0.99999445 98:-0.84963549 99:-0.77376326 100:-0.99988805 101:-0.99822302 102:-0.99764232 103:-0.82595366 104:-0.99764232 105:-0.69546957 106:-0.63851998 107:-0.92930992 108:-0.76731958 109:-0.28687021 110:0.15680687 111:-0.42872484 112:-0.9184316 113:0.64614025 114:0.34794239 115:-0.84353305 116:-0.60975043 117:-0.55538179 118:0.64959643 119:-0.55538179 120:0.25143375 121:-0.99838534 122:-0.38536804 123:-0.98860023 124:-0.97548118 125:-0.82042102 126:0.82685268 127:-0.99999518 128:-0.85867911 129:-0.80112566 130:-0.99992427 131:-0.99845917 132:-0.99722744 133:-0.81540925 134:-0.99722744 135:-0.67889543 136:-0.67482378 137:-0.93851889 138:-0.69618764 139:-0.35156961 140:0.14277926 141:-0.48400598 142:-0.9030755 143:0.68491794 144:0.38287311 145:-0.81249889 146:-0.48311113 147:-0.41008798 148:0.6262159 149:-0.41008798 150:0.23253451 151:-0.99858811 152:-0.54437149 153:-0.98276642 154:-0.97717635 155:-0.81592377 156:0.77575569 157:-0.99999365 158:-0.861339 159:-0.8266677 160:-0.99989546 161:-0.99813745 162:-0.99569971 163:-0.78251746 164:-0.99569971 165:-0.53390896 166:-0.31896609 167:-0.82485402 168:-0.49566776 169:0.89929459 170:-0.7361276 171:0.018837846 172:-0.07017166 173:0.46341011 174:-0.239883 175:-0.89896777 176:-0.94634233 177:0.31082851 178:-0.16681078 179:-0.23976564 180:-0.50446213 181:0.55248739 182:-0.35352425 183:0.51650643 184:-0.42907803 185:0.43873271 186:-0.53817729 187:-0.71185046 188:0.88805186 189:0.70700633 190:-0.57842821 191:-0.40622175 192:-0.47312463 193:-0.20366072 194:-0.27600304 195:-0.67282006 196:-0.26265761 197:0.55259579 198:0.14140972 199:-0.7724616 200:-0.81320557 201:-0.32749865 202:0.21291201 203:0.076137585 204:-0.17887205 205:0.47920089 206:0.51817156 207:0.21025759 208:0.32316597 209:0.66485797 210:-0.62296626 211:0.6866236 212:0.97895405 213:0.46367483 214:0.32041585 215:-0.71129506 216:-0.77733729 217:-0.96064085 218:-0.98753986 219:-0.75322413 220:-0.28097993 221:-0.039192761 222:-0.84535989 223:-0.96549503 224:-0.76606832 225:-0.47326963 226:-0.95346365 227:0.7015215 228:-0.22133376 229:-0.35683316 230:-0.47326963 231:-0.69908068 232:-0.32441472 233:-0.12047179 234:-0.33848503 235:-0.092041942 236:-0.48895522 237:-0.88294342 238:-0.79092097 
0 0 0 0 0 0.7220415510615363 0 0 0 0:-0.82376893 1:0.87379412 2:-0.23076924 3:-0.98470478 4:-0.93571987 5:-0.84685064 6:-0.96666667 7:0.7595453 8:-1 9:-0.9999769 10:-0.85180914 11:-0.53229687 12:-0.048771221 13:0.77076826 14:-1 15:-0.25 16:-1 17:-1 18:-1 19:-0.98978177 20:0.85112359 21:-0.93818186 22:0.71181963 23:-1 24:-1 25:-1 26:-1 27:-1 28:0.26877771 29:-0.4694485 30:-0.65777799 31:-0.78133074 32:-0.96986495 33:-1 34:-1 35:-1 36:-1 37:-0.94263218 38:-0.22049236 39:-0.78993406 40:-0.86827166 41:-0.88422036 42:-0.57988441 43:-0.98595355 44:-0.36643398 45:-0.86918557 46:-0.054843832 47:-0.81836806 48:-0.76688853 49:0.26860127 50:0.23569714 51:-0.54833169 52:-0.92224451 53:0.22059557 54:0.43252864 55:-0.77560296 56:-0.67587256 57:-0.68198127 58:0.17354329 59:-0.68198127 60:0.066780094 61:-0.99236136 62:0.21871124 63:-0.98694349 64:-0.93650258 65:-0.79713607 66:0.83639277 67:-0.99999279 68:-0.87850097 69:-0.73520187 70:-0.9833804 71:-0.99786574 72:-0.99769682 73:-0.86983209 74:-0.99769682 75:-0.81156484 76:-0.5386373 77:-0.82733598 78:-0.77356375 79:-0.17756199 80:0.16114023 81:-0.42723654 82:-0.93165742 83:0.2108109 84:0.38252549 85:-0.84439199 86:-0.6889845 87:-0.68660946 88:0.19437805 89:-0.68660946 90:-0.051940154 91:-0.99689426 92:0.064035296 93:-0.9865495 94:-0.95857284 95:-0.78427519 96:0.81368489 97:-0.99999297 98:-0.88268344 99:-0.72420523 100:-0.9998084 101:-0.99774403 102:-0.99759888 103:-0.86622238 104:-0.99759888 105:-0.68776694 106:-0.68380672 107:-0.90391318 108:-0.75476105 109:-0.34571631 110:0.11458818 111:-0.34101826 112:-0.93463169 113:0.22274126 114:0.2707027 115:-0.85676388 116:-0.67942146 117:-0.65172365 118:0.21303015 119:-0.65172365 120:-0.081172099 121:-0.99806327 122:-0.16127764 123:-0.98562125 124:-0.96927601 125:-0.77273996 126:0.78034577 127:-0.99999267 128:-0.88871859 129:-0.74038609 130:-0.99985782 131:-0.99771601 132:-0.99725245 133:-0.85748253 134:-0.99725245 135:-0.67080631 136:-0.70756874 137:-0.93033305 138:-0.67212732 139:-0.4109386 140:0.11226538 141:-0.32415016 142:-0.92133698 143:0.26667274 144:0.32317426 145:-0.84201633 146:-0.56899409 147:-0.52650072 148:0.21448267 149:-0.52650072 150:-0.060691012 151:-0.99806831 152:-0.29955958 153:-0.98159721 154:-0.96765028 155:-0.76415634 156:0.68252982 157:-0.99999019 158:-0.88961017 159:-0.78223634 160:-0.99983407 161:-0.99741337 162:-0.99635683 163:-0.83508811 164:-0.99635683 165:-0.85983915 166:-0.35304089 167:-0.69229229 168:-0.68389603 169:0.53403184 170:-0.55009417 171:-0.25948723 172:-0.41146263 173:0.21593318 174:-0.13946933 175:-0.90053423 176:-0.92693025 177:0.090213976 178:-0.24987474 179:-0.44169718 180:-0.59333372 181:-0.31287016 182:-0.54043668 183:0.29987021 184:-0.29223367 185:-0.019421402 186:-0.58020998 187:-0.24798796 188:0.97986265 189:0.31596579 190:-0.28150562 191:-0.67176258 192:-0.66804489 193:-0.33428504 194:-0.44129335 195:-0.72154126 196:-0.69392087 197:0.33104576 198:-0.073693744 199:-0.94333579 200:-0.885474 201:-0.084891415 202:-0.20387613 203:-0.26323155 204:-0.2643106 205:0.56398782 206:0.15607096 207:0.19794665 208:0.58829697 209:0.29744993 210:-0.62905219 211:0.22069663 212:0.92551385 213:0.071790109 214:0.014327251 215:-0.98840113 216:-0.99714438 217:-0.98621654 218:-0.99994909 219:-0.75300288 220:-0.27445162 221:-0.03922326 222:-0.87939026 223:-0.96902643 224:-0.89754517 225:-0.71803604 226:-0.92789419 227:0.23356935 228:-0.31927639 229:-0.73480076 230:-0.71803604 231:-0.59352406 232:-0.55183947 233:0.85112359 234:-0.93818187 235:0.71181895 236:-0.68477612 237:-0.71065325 238:-0.86466988 
0 0 0 0 0 0 0 0 11.62503353719361 0:-0.77278781 1:0.60743656 2:-0.38461539 3:-0.84115522 4:-0.8453229 5:-0.77643714 6:-0.94230769 7:0.85635143 8:-1 9:-0.99862868 10:-0.75198034 11:-0.6848242 12:-0.44703325 13:0.26335178 14:-1 15:-0.75 16:-1 17:-1 18:-1 19:-0.65632406 20:0.14038791 21:-0.5210982 22:0.16924314 23:-1 24:-1 25:-1 26:-1 27:-1 28:-0.74691672 29:-0.94526499 30:-0.98930283 31:-0.98542371 32:-0.9939509 33:-0.44355866 34:-0.81962912 35:-0.91295022 36:-0.92080334 37:-0.54638757 38:-0.70385991 39:-0.89658513 40:-0.92495866 41:-0.582993 42:0.22202018 43:-0.77487892 44:-0.07829982 45:-0.95096558 46:-0.17354669 47:-0.93371304 48:-0.63498455 49:0.15209558 50:0.70101611 51:-0.53397276 52:-0.82852842 53:0.7878085 54:0.73360823 55:-0.81502032 56:-0.39078539 57:-0.34506133 58:0.78839158 59:-0.34506133 60:-0.75349768 61:-0.94911896 62:-0.84068254 63:-0.92859897 64:-0.70444728 65:-0.11723317 66:0.30668621 67:-0.99938525 68:-0.37199832 69:-0.00022245058 70:-0.98217484 71:-0.96487999 72:-0.96023812 73:-0.35435127 74:-0.96023812 75:-0.9258761 76:-0.3591835 77:-0.94849585 78:-0.62958057 79:-0.029242652 80:0.62850513 81:-0.45415856 82:-0.8635358 83:0.80546541 84:0.62597202 85:-0.80430476 86:-0.44759886 87:-0.3267889 88:0.79832679 89:-0.3267889 90:-0.80574354 91:-0.96190382 92:-0.86483105 93:-0.92675647 94:-0.74536969 95:-0.10154259 96:0.10285872 97:-0.99949685 98:-0.38385238 99:-0.05056791 100:-0.99723025 101:-0.96641746 102:-0.95992167 103:-0.34336623 104:-0.95992167 105:-0.87943132 106:-0.43369081 107:-0.97212553 108:-0.59972856 109:-0.043061162 110:0.56675642 111:-0.59828623 112:-0.85655505 113:0.81790628 114:0.499034 115:-0.73593508 116:-0.45523426 117:-0.26840496 118:0.74622105 119:-0.26840496 120:-0.83625809 121:-0.96628276 122:-0.89652837 123:-0.92041944 124:-0.76949476 125:-0.083472533 126:-0.10510664 127:-0.99946806 128:-0.4134818 129:-0.12384863 130:-0.9960362 131:-0.96797273 132:-0.95675434 133:-0.32224952 134:-0.95675434 135:-0.86718553 136:-0.3663523 137:-0.96150607 138:-0.49252936 139:0.0041401997 140:0.49649272 141:-0.7881425 142:-0.80596482 143:0.73433096 144:0.48234078 145:-0.65154908 146:-0.35304416 147:-0.16603955 148:0.51584815 149:-0.16603955 150:-0.85865157 151:-0.96155609 152:-0.90816305 153:-0.90204173 154:-0.76664575 155:-0.043293665 156:-0.27790199 157:-0.99926207 158:-0.44404822 159:-0.18312319 160:-0.99470036 161:-0.96265932 162:-0.94998854 163:-0.26140392 164:-0.94998854 165:-0.32344821 166:-0.20575698 167:-0.9638556 168:-0.89005079 169:0.19542216 170:0.020814813 171:-0.38449459 172:-0.25357357 173:0.39803033 174:0.042812782 175:-0.92917914 176:-0.89549372 177:0.092585517 178:-0.36695394 179:-0.00060615992 180:-0.28256328 181:0.66387955 182:-0.25708724 183:0.56135543 184:0.093180177 185:0.16062469 186:-0.25901183 187:-0.77762973 188:0.95217955 189:0.59659989 190:-0.3292342 191:-0.73466382 192:-0.87005316 193:0.51180861 194:0.33097743 195:-0.76769763 196:-0.73299497 197:0.43752155 198:0.20135666 199:-0.71503154 200:-0.74488007 201:0.44200795 202:0.10695836 203:-0.40281583 204:-0.18459444 205:0.27478243 206:0.68090222 207:-0.46158294 208:-0.24016428 209:0.32912329 210:0.6272799 211:0.76771013 212:0.96159658 213:0.62604702 214:0.49689844 215:-0.80993696 216:-0.88555555 217:-0.89272234 218:-0.98306918 219:-0.75288847 220:-0.27392935 221:-0.039460355 222:-0.36813025 223:-0.7601884 224:-0.86898851 225:-0.88756397 226:-0.54063648 227:0.76808404 228:0.032991736 229:-0.84548768 230:-0.88756397 231:0.15999654 232:-0.77257525 233:0.14038791 234:-0.52109829 235:0.16924268 236:-0.89074627 237:-0.45472184 238:-0.53045376 
0 0 0 0 0 0 0 0 22.44098936460503 0:-0.69034503 1:0.7936876 2:-0.69230769 3:-0.87993274 4:-0.90210659 5:-0.94477579 6:-0.86538462 7:0.7595453 8:-0.66666667 9:-0.99593415 10:-0.74011276 11:-0.48092958 12:-0.32506429 13:0.18266904 14:-1 15:-0.41666667 16:-1 17:-1 18:-1 19:-0.6391242 20:0.12074105 21:-0.52260299 22:0.13106358 23:-1 24:-1 25:-1 26:-1 27:-1 28:-0.50624708 29:-0.76865281 30:-0.71917909 31:-0.78072567 32:-0.97914726 33:-1 34:-1 35:-1 36:-1 37:-0.95173198 38:-0.60137681 39:-0.76488866 40:-0.83976919 41:-0.76249026 42:-0.61921127 43:-0.7928055 44:-0.38698233 45:-0.91970741 46:-0.2486402 47:-0.89143821 48:-0.73902322 49:0.047422102 50:0.588746 51:-0.41288273 52:-0.90225872 53:0.59288983 54:0.57744763 55:-0.83846818 56:-0.58646866 57:-0.54948143 58:0.59335299 59:-0.54948143 60:-0.56870652 61:-0.97111514 62:-0.62474413 63:-0.96135024 64:-0.80099628 65:-0.36388623 66:0.50925449 67:-0.99986983 68:-0.62801295 69:-0.24874426 70:-0.98302641 71:-0.9866531 72:-0.98498173 73:-0.61722109 74:-0.98498173 75:-0.8982124 76:-0.48394055 77:-0.90581512 78:-0.74374666 79:-0.13709142 80:0.54600905 81:-0.4660317 82:-0.92490591 83:0.58639754 84:0.47562196 85:-0.86636756 86:-0.62782609 87:-0.55547466 88:0.5881631 89:-0.55547466 90:-0.64402365 91:-0.98212375 92:-0.67124642 93:-0.96150781 94:-0.84155828 95:-0.34651947 96:0.36833062 97:-0.99989736 98:-0.63836468 99:-0.3071583 100:-0.99914238 101:-0.98735946 102:-0.98529268 103:-0.61308238 104:-0.98529268 105:-0.84472356 106:-0.57466804 107:-0.9533791 108:-0.72645214 109:-0.19654419 110:0.50681742 111:-0.50846891 112:-0.92780694 113:0.5900348 114:0.33329817 115:-0.8463204 116:-0.65196843 117:-0.52121656 118:0.55583884 119:-0.52121656 120:-0.68478358 121:-0.98540064 122:-0.76183809 123:-0.9593251 124:-0.8615724 125:-0.329453 126:0.18891686 127:-0.99990191 128:-0.65751423 129:-0.38788261 130:-0.99892462 131:-0.98854774 132:-0.98439866 133:-0.6016887 134:-0.98439866 135:-0.83474035 136:-0.62219398 137:-0.95400394 138:-0.61276772 139:-0.29644662 140:0.49797583 141:-0.56947336 142:-0.89922676 143:0.60205602 144:0.41257248 145:-0.80448123 146:-0.50833189 147:-0.33359918 148:0.51414335 149:-0.33359918 150:-0.68674725 151:-0.98717418 152:-0.80953347 153:-0.93920365 154:-0.88411797 155:-0.31119119 156:0.14737766 157:-0.99985142 158:-0.66508507 159:-0.38895658 160:-0.99859061 161:-0.98364664 162:-0.97706804 163:-0.53311307 164:-0.97706804 165:-0.60404341 166:-0.26539217 167:-0.77933504 168:-0.71257843 169:0.58186816 170:-0.46407994 171:-0.16274177 172:-0.28700407 173:0.34776318 174:-0.15588121 175:-0.89026029 176:-0.90629362 177:0.13745006 178:-0.39818638 179:0.059715934 180:-0.17522852 181:0.11784578 182:-0.3715266 183:0.22879943 184:-0.19029096 185:-0.092378084 186:-0.59355993 187:-0.60553927 188:0.97795983 189:0.60222307 190:-0.42166445 191:-0.53709463 192:-0.69521559 193:0.11142092 194:-0.058053849 195:-0.77564996 196:0.16019223 197:0.99999999 198:-0.44132402 199:-0.91199972 200:-0.85678875 201:0.56567411 202:-0.28548692 203:-0.057136548 204:-0.20830581 205:0.58656622 206:0.47096901 207:-0.52809518 208:-0.087767318 209:0.48487389 210:-0.080320003 211:0.59935778 212:0.96211703 213:0.41367823 214:0.27512295 215:-0.82539773 216:-0.88156953 217:-0.92152826 218:-0.98760948 219:-0.75323127 220:-0.27812918 221:-0.039316069 222:-0.61995587 223:-0.8606888 224:-0.789688 225:-0.71922632 226:-0.85898505 227:0.60189147 228:-0.17732488 229:-0.66554464 230:-0.71922632 231:-0.54946381 232:-0.55183947 233:0.12074105 234:-0.52260309 235:0.13106313 236:-0.71343284 237:-0.74562167 238:-0.53839701 
0 1.354701637672649 0 24.35311640431205 0 0 0 0 0 0:-0.86816385 1:0.84945112 2:-0.076923084 3:-0.97128912 4:-0.90154358 5:-0.841406 6:-0.94017094 7:0.70883731 8:-1 9:-0.99952953 10:-0.70305058 11:-0.16369134 12:-0.00078034273 13:0.28499238 14:-1 15:-0.083333337 16:-1 17:-1 18:-1 19:-0.6610382 20:0.14586862 21:-0.56186828 22:0.12340988 23:-0.8957605 24:-0.92955016 25:-1 26:-0.97152734 27:-0.95049892 28:0.68053695 29:-0.53835839 30:-0.74033976 31:-0.84954019 32:-0.95418322 33:-0.94736856 34:-0.89763688 35:-0.97529899 36:-0.99182813 37:-0.97227658 38:-0.04715086 39:-0.70264326 40:-0.92448091 41:-0.94042913 42:-0.89991922 43:-0.84218729 44:-0.66053541 45:-0.95433119 46:-0.20738281 47:-0.78843485 48:-0.87521522 49:0.14473399 50:0.6950599 51:-0.55832651 52:-0.94422527 53:0.67538056 54:0.40874329 55:-0.82256921 56:-0.72020675 57:-0.72531192 58:0.66992882 59:-0.72531192 60:-0.2285401 61:-0.98481537 62:-0.070925859 63:-0.98531089 64:-0.87505272 65:-0.65484023 66:0.67874546 67:-0.99998138 68:-0.78579319 69:-0.5784476 70:-0.98332729 71:-0.99619439 72:-0.99590266 73:-0.77760052 74:-0.99590266 75:-0.91087628 76:-0.66428648 77:-0.79618787 78:-0.87913497 79:-0.31519624 80:0.53203711 81:-0.38117698 82:-0.95309586 83:0.65634955 84:0.34422781 85:-0.89660092 86:-0.73105087 87:-0.72660417 88:0.70451678 89:-0.72660417 90:-0.27187049 91:-0.99470299 92:-0.13246661 93:-0.98552608 94:-0.92901209 95:-0.67419526 96:0.6804012 97:-0.99998364 98:-0.79311543 99:-0.59922376 100:-0.99973951 101:-0.99611728 102:-0.99590905 103:-0.77030016 104:-0.99590905 105:-0.83076005 106:-0.7930023 107:-0.87602014 108:-0.87093881 109:-0.49840916 110:0.46271335 111:-0.24588288 112:-0.95696779 113:0.67160051 114:0.26876575 115:-0.91451041 116:-0.70958484 117:-0.69167946 118:0.75455373 119:-0.69167946 120:-0.2770649 121:-0.99713107 122:-0.24479897 123:-0.98459532 124:-0.95419848 125:-0.67329349 126:0.6719863 127:-0.99998407 128:-0.80292065 129:-0.62312292 130:-0.99977574 131:-0.99579761 132:-0.99531973 133:-0.75166759 134:-0.99531973 135:-0.83435069 136:-0.78564624 137:-0.9176919 138:-0.83054347 139:-0.51100824 140:0.48369978 141:-0.34186583 142:-0.95038741 143:0.75518577 144:0.29310089 145:-0.89135539 146:-0.61844368 147:-0.57376886 148:0.77264499 149:-0.57376886 150:-0.28294065 151:-0.99696334 152:-0.41611001 153:-0.9784332 154:-0.95608434 155:-0.65294154 156:0.59130367 157:-0.99997995 158:-0.80042179 159:-0.66176891 160:-0.99971771 161:-0.99461534 162:-0.99320525 163:-0.69944621 164:-0.99320525 165:-0.53931001 166:-0.29274159 167:-0.76366328 168:-0.45383926 169:0.97343819 170:-0.93846294 171:-0.24109203 172:-0.45399788 173:0.89089452 174:-0.012722582 175:-0.8029298 176:-0.65558139 177:0.9245753 178:-0.062941997 179:-0.39002869 180:-0.47685102 181:0.78041472 182:-0.81590927 183:0.35586784 184:-0.50634978 185:0.89401301 186:-0.6408166 187:-0.73420914 188:0.97421596 189:0.83667681 190:-0.85480787 191:-0.41584787 192:-0.43768458 193:-0.27324923 194:-0.31795231 195:-0.78330012 196:-0.69122497 197:0.56868826 198:-0.21629961 199:-0.96638324 200:-0.9526239 201:0.38465552 202:-0.093231058 203:-0.22753333 204:-0.23703771 205:0.48911955 206:0.49051554 207:0.24649943 208:0.42957081 209:0.58330916 210:-0.6767266 211:0.70350226 212:0.9928555 213:0.41446234 214:0.2420862 215:-0.86769541 216:-0.89317409 217:-0.98354114 218:-0.99715425 219:-0.75298783 220:-0.27351721 221:-0.039220592 222:-0.78347878 223:-0.94018648 224:-0.73328036 225:-0.47595671 226:-0.93476614 227:0.72306881 228:-0.3728051 229:-0.37961471 230:-0.47595671 231:-0.64264773 232:-0.30434783 233:0.14586862 234:-0.56186837 235:0.12340944 236:-0.45373134 237:-0.69512137 238:-0.86264374 
0 2.040999392464333 0 20.01312733795466 0 3.275433104406318 0 0 0 0:-0.8231057 1:0.82412205 2:-0.076923084 3:-0.92858392 4:-0.93033807 5:-0.86333637 6:-0.91239316 7:0.7595453 8:-0.66666667 9:-0.99597692 10:-0.63550039 11:0.085331174 12:-0.12746894 13:-0.071807652 14:-1 15:-0.25 16:-1 17:-1 18:-1 19:0.008993213 20:-0.41470213 21:-0.089665858 22:-0.418677 23:-1 24:-1 25:-0.92285003 26:-1 27:-1 28:0.25691989 29:-0.48584583 30:-0.75207535 31:-0.84212956 32:-0.96714423 33:-0.90929287 34:-1 35:-0.97871464 36:-0.99647907 37:-0.98464226 38:-0.30556548 39:-0.70708554 40:-0.82615808 41:-0.90343322 42:-0.89172003 43:-0.46951109 44:-0.73996862 45:-0.94082846 46:-0.49142408 47:-0.84157998 48:-0.73879134 49:-0.13110202 50:0.61436314 51:-0.37074908 52:-0.90275603 53:0.32285488 54:0.62098224 55:-0.79637889 56:-0.58956308 57:-0.61405282 58:0.32684409 59:-0.61405282 60:-0.5603571 61:-0.97844989 62:-0.53205388 63:-0.96242899 64:-0.83455885 65:-0.39282508 66:0.58105841 67:-0.99987184 68:-0.67679383 69:-0.24741839 70:-0.98287536 71:-0.9868977 72:-0.98681006 73:-0.66561413 74:-0.98681006 75:-0.91388251 76:-0.71606339 77:-0.83122591 78:-0.7533154 79:-0.37925616 80:0.53865852 81:-0.30226833 82:-0.91746083 83:0.3157102 84:0.55965518 85:-0.85945385 86:-0.59647189 87:-0.6255423 88:0.35371033 89:-0.6255423 90:-0.61731098 91:-0.98961834 92:-0.5240215 93:-0.96354416 94:-0.8871129 95:-0.39721184 96:0.51830189 97:-0.99989087 98:-0.6861242 99:-0.27954936 100:-0.9991787 101:-0.98649611 102:-0.98724642 103:-0.65726001 104:-0.98724642 105:-0.86541108 106:-0.78035799 107:-0.88700557 108:-0.74206545 109:-0.46518257 110:0.5384128 111:-0.31992072 112:-0.92239909 113:0.34408599 114:0.48154522 115:-0.86479754 116:-0.56184224 117:-0.58924206 118:0.38803752 119:-0.58924206 120:-0.651014 121:-0.99240538 122:-0.57206956 123:-0.96109245 124:-0.91019396 125:-0.37488339 126:0.41778894 127:-0.99989757 128:-0.69913992 129:-0.32336972 130:-0.99910257 131:-0.98581597 132:-0.98597347 133:-0.63495001 134:-0.98597347 135:-0.86910208 136:-0.74234405 137:-0.91706408 138:-0.67593214 139:-0.44132804 140:0.58149303 141:-0.44515021 142:-0.91176971 143:0.43676936 144:0.49513354 145:-0.83677691 146:-0.42974566 147:-0.460448 148:0.40679952 149:-0.460448 150:-0.67034928 151:-0.99100162 152:-0.62689022 153:-0.94921856 154:-0.90656816 155:-0.33387894 156:0.25588898 157:-0.99987419 158:-0.69264261 159:-0.36599037 160:-0.99885744 161:-0.98164782 162:-0.98130336 163:-0.5613239 164:-0.98130336 165:-0.20909801 166:-0.2136391 167:-0.54429911 168:-0.35464595 169:0.70452701 170:-0.53548674 171:-0.068876952 172:0.041061415 173:0.25297405 174:-0.018628952 175:-0.91154563 176:-0.85912661 177:-0.17116282 178:-0.31269028 179:0.0860867 180:-0.15894182 181:0.24230335 182:-0.070942634 183:-0.22895809 184:-0.6282249 185:0.16811994 186:-0.44418437 187:-0.34823632 188:0.99067351 189:0.37034677 190:-0.26153465 191:-0.53205447 192:-0.34081512 193:-0.49780028 194:-0.38104237 195:-0.47342024 196:0.35277141 197:0.57485905 198:0.34381951 199:-0.8111988 200:-0.80110754 201:-0.34200722 202:0.38369172 203:0.19847758 204:-0.19612175 205:0.39663956 206:0.58863981 207:-0.25157194 208:-0.21802043 209:0.24383841 210:-0.52088299 211:0.34019001 212:0.99456797 213:0.1967641 214:0.13766145 215:-0.53791042 216:-0.57257891 217:-0.96656577 218:-0.989469 219:-0.7531522 220:-0.28215014 221:-0.039253478 222:-0.66815611 223:-0.86556682 224:-0.55040666 225:-0.28078282 226:-0.92201209 227:0.34570928 228:-0.25871356 229:-0.37912767 230:-0.28078282 231:-0.73334853 232:-0.20401338 233:-0.41470213 234:-0.089666044 235:-0.41867722 236:-0.3558209 237:-0.94694965 238:-0.70609293 
0 0 0 79.23659726404095 0 0 0 0 0 0:-0.8253802 1:0.94342645 2:-0.53846154 3:-0.98211336 4:-0.95462082 5:-0.94247273 6:-0.94871795 7:0.7595453 8:-1 9:-0.99974338 10:-0.71002523 11:-0.17794115 12:0.059832499 13:0.37942802 14:-1 15:-4.1666667e-09 16:-1 17:-1 18:-1 19:-0.67334048 20:0.16037645 21:-0.57900167 22:0.12604852 23:-1 24:-1 25:-1 26:-1 27:-1 28:-0.11085293 29:-0.73090842 30:-0.79579895 31:-0.90548517 32:-0.96603258 33:-1 34:-1 35:-0.97760032 36:-1 37:-0.96947226 38:-0.50110115 39:-0.82430221 40:-0.94608607 41:-0.9860391 42:-0.93392486 43:-0.86113234 44:-0.65461356 45:-0.93787974 46:-0.49925042 47:-0.85853998 48:-0.73614221 49:-0.15062284 50:0.62411261 51:-0.32828031 52:-0.89558838 53:0.42415682 54:0.63454414 55:-0.81944307 56:-0.56782314 57:-0.58398828 58:0.43651857 59:-0.58398828 60:-0.68539348 61:-0.96794961 62:-0.69851315 63:-0.96132758 64:-0.77694113 65:-0.24265846 66:0.44848345 67:-0.9997103 68:-0.41169811 69:-0.10676158 70:-0.98254255 71:-0.97845403 72:-0.97796154 73:-0.38868899 74:-0.97796154 75:-0.90407368 76:-0.72702632 77:-0.85512916 78:-0.74622828 79:-0.40707677 80:0.53247947 81:-0.25229888 82:-0.91541708 83:0.41651962 84:0.57532977 85:-0.8765717 86:-0.57574562 87:-0.58852802 88:0.46836697 89:-0.58852802 90:-0.72211818 91:-0.9844309 92:-0.69699776 93:-0.96214791 94:-0.85324788 95:-0.26135191 96:0.4016072 97:-0.99975851 98:-0.43031677 99:-0.14660746 100:-0.99870499 101:-0.97775507 102:-0.97841297 103:-0.37147587 104:-0.97841297 105:-0.85944535 106:-0.78296407 107:-0.90346346 108:-0.73440049 109:-0.4699106 110:0.52561782 111:-0.31815706 112:-0.92310346 113:0.44741031 114:0.48325842 115:-0.87397776 116:-0.54395101 117:-0.54765365 118:0.50156038 119:-0.54765365 120:-0.74862646 121:-0.98827215 122:-0.72791935 123:-0.95976649 124:-0.87972961 125:-0.24294865 126:0.26601239 127:-0.99977821 128:-0.45562468 129:-0.19661955 130:-0.99842998 131:-0.97693894 132:-0.97629108 133:-0.32922634 134:-0.97629108 135:-0.86427096 136:-0.7278383 137:-0.93325219 138:-0.64406017 139:-0.434325 140:0.58081688 141:-0.38913998 142:-0.91009044 143:0.53971628 144:0.50043469 145:-0.83601775 146:-0.41572005 147:-0.37796994 148:0.51161391 149:-0.37796994 150:-0.76350227 151:-0.9854168 152:-0.78994012 153:-0.9442854 154:-0.87565035 155:-0.19677406 156:0.11850542 157:-0.99972464 158:-0.44646496 159:-0.23571384 160:-0.99788175 161:-0.97060392 162:-0.96673427 163:-0.18619486 164:-0.96673427 165:-0.70471537 166:-0.24275407 167:-0.52386083 168:-0.3910965 169:0.69752122 170:-0.59501139 171:-0.18080024 172:-0.094786917 173:0.33904399 174:-0.095071782 175:-0.87159114 176:-0.84642494 177:0.1863356 178:-0.077799801 179:-0.17083093 180:-0.17280421 181:0.045715249 182:-0.52854075 183:-0.082920773 184:-0.55304753 185:0.16291056 186:-0.23319281 187:-0.4518629 188:0.97691004 189:0.45463584 190:-0.3053992 191:-0.4291826 192:-0.3756645 193:-0.33437625 194:-0.32386452 195:-0.77600485 196:0.15417378 197:0.59643045 198:0.083489547 199:-0.87363042 200:-0.76012922 201:0.021291568 202:0.1016693 203:-0.21746264 204:-0.087084212 205:0.57285093 206:0.40186514 207:-0.2819257 208:-0.089422257 209:0.41902148 210:-0.45333996 211:0.44051886 212:0.9940093 213:0.28412517 214:0.19240743 215:-0.8838091 216:-0.89864871 217:-0.99825433 218:-0.99977265 219:-0.75300295 220:-0.2744852 221:-0.039223307 222:-0.3945509 223:-0.82602027 224:-0.41170714 225:-0.42176475 226:-0.87164797 227:0.45145494 228:-0.20196601 229:-0.45747934 230:-0.42176475 231:-0.70422156 232:-0.25752508 233:0.16037645 234:-0.57900176 235:0.12604807 236:-0.39104478 237:-0.94535826 238:-0.92625511 
0 0 0 4.208006338081634 0 0 0 0 0 0:-0.85016696 1:0.9131035 2:-0.53846154 3:-0.97799673 4:-0.9275861 5:-0.93218282 6:-0.94444444 7:0.7595453 8:-1 9:-0.99972199 10:-0.62406101 11:-0.10381484 12:-0.01019235 13:0.21201635 14:-1 15:-0.16666667 16:-1 17:-1 18:-1 19:-0.35278764 20:-0.15084375 21:-0.34471268 22:-0.15887653 23:-1 24:-0.92468646 25:-1 26:-1 27:-1 28:0.4132405 29:-0.5060899 30:-0.86446273 31:-0.89512403 32:-0.96201099 33:-1 34:-0.89056997 35:-0.98019526 36:-0.99563198 37:-0.95977785 38:-0.20850472 39:-0.75531658 40:-0.92096711 41:-0.94600346 42:-0.89010699 43:-0.69532898 44:-0.67436309 45:-0.95007866 46:-0.25218842 47:-0.81760811 48:-0.81636152 49:0.10966145 50:0.68519128 51:-0.52370463 52:-0.92731806 53:0.49065352 54:0.50441564 55:-0.8090052 56:-0.66895436 57:-0.67787561 58:0.47786459 59:-0.67787561 60:-0.25786683 61:-0.98394733 62:-0.25775845 63:-0.9817232 64:-0.87101362 65:-0.60119592 66:0.67003897 67:-0.99997151 68:-0.73964912 69:-0.50921366 70:-0.98329937 71:-0.99472697 72:-0.99411394 73:-0.72872827 74:-0.99411394 75:-0.91145165 76:-0.6726965 77:-0.82189614 78:-0.82217623 79:-0.32519444 80:0.53173856 81:-0.35581481 82:-0.93867256 83:0.47988724 84:0.44641359 85:-0.87985333 86:-0.67869087 87:-0.67846048 88:0.51741532 89:-0.67846048 90:-0.28730211 91:-0.99429504 92:-0.30254415 93:-0.9817197 94:-0.92950274 95:-0.62204833 96:0.68863487 97:-0.99997499 98:-0.74815981 99:-0.52709181 100:-0.99970615 101:-0.99449174 102:-0.99404564 103:-0.71856926 104:-0.99404564 105:-0.85221311 106:-0.7718232 107:-0.88363238 108:-0.81618762 109:-0.44547468 110:0.49090218 111:-0.35685515 112:-0.94344737 113:0.50383895 114:0.35118369 115:-0.89061029 116:-0.65758719 117:-0.64895995 118:0.55367179 119:-0.64895995 120:-0.28849281 121:-0.99635212 122:-0.4202642 123:-0.98053357 124:-0.94778192 125:-0.61711613 126:0.63773769 127:-0.99997673 128:-0.75936922 129:-0.5637476 130:-0.9997225 131:-0.99436826 132:-0.9932873 133:-0.69741418 134:-0.9932873 135:-0.85550872 136:-0.7464756 137:-0.92500893 138:-0.75402624 139:-0.45098916 140:0.52479703 141:-0.42525514 142:-0.9316302 143:0.58277883 144:0.3736206 145:-0.86234047 146:-0.55798398 147:-0.51425466 148:0.56439259 149:-0.51425466 150:-0.3073984 151:-0.99583233 152:-0.58320585 153:-0.97279951 154:-0.9475697 155:-0.58844641 156:0.53886222 157:-0.99996997 158:-0.75662559 159:-0.60176795 160:-0.9996264 161:-0.99294742 162:-0.99039114 163:-0.63489655 164:-0.99039114 165:-0.3014351 166:-0.16321434 167:-0.72123132 168:-0.49268001 169:0.82110633 170:-0.71348747 171:-0.091357655 172:-0.37918257 173:0.87755019 174:0.10924864 175:-0.92713589 176:-0.93367884 177:0.10622937 178:-0.23543284 179:-0.066390388 180:-0.19567844 181:0.49584212 182:-0.34339975 183:0.24671502 184:-0.40531324 185:0.41308857 186:-0.52259408 187:-0.53210124 188:0.97994784 189:0.60276077 190:-0.56564048 191:-0.49284724 192:-0.47666864 193:-0.36349604 194:-0.43591216 195:-0.86793199 196:-0.89843377 197:0.43958835 198:-0.36449686 199:-0.93775912 200:-0.84481312 201:0.076364299 202:-0.15937177 203:-0.0025073274 204:-0.17056968 205:0.32941629 206:0.4636201 207:0.24702718 208:0.28350831 209:0.49471591 210:-0.66721429 211:0.49855744 212:0.99200054 213:0.27765084 214:0.15561598 215:-0.74064875 216:-0.77021276 217:-0.99157155 218:-0.99606953 219:-0.75298877 220:-0.27299627 221:-0.039228386 222:-0.73601642 223:-0.92082932 224:-0.70808975 225:-0.48258561 226:-0.91986702 227:0.52042844 228:-0.30690869 229:-0.46971997 230:-0.48258561 231:-0.64702923 232:-0.31103679 233:-0.15084375 234:-0.34471282 235:-0.15887687 236:-0.49313433 237:-0.79761375 238:-0.92919669 
0.8469075700539735 0.6001538033063571 1.3517044520275 0 0.6563460147975678 0.252094736003001 0.4821173396163906 0.5969863378350454 0.009574594849868778 0:-0.80684935 1:0.89791502 2:-0.23076924 3:-0.97486254 4:-0.93663607 5:-0.92434863 6:-0.95897436 7:0.59631741 8:-1 9:-0.99975364 10:-0.65096648 11:-0.29883265 12:-0.045496757 13:0.38441859 14:-1 15:-0.16666667 16:-1 17:-1 18:-1 19:-0.63306106 20:0.11394081 21:-0.54623737 22:0.086641898 23:-0.75138211 24:-1 25:-1 26:-0.93209088 27:-0.97048419 28:0.28996212 29:-0.57945255 30:-0.90211354 31:-0.90681455 32:-0.96307571 33:-0.81170597 34:-0.93896435 35:-0.97054325 36:-0.97807327 37:-0.96457743 38:-0.22244069 39:-0.7847963 40:-0.90413121 41:-0.91725602 42:-0.90056414 43:-0.83936653 44:-0.56715269 45:-0.059789476 46:-0.97329601 47:0.99999933 48:-1 49:-1 50:-1 51:0.92262838 52:-1 53:-0.83976153 54:-1 55:-0.88527261 56:-1 57:-1 58:-0.80917586 59:-1 60:-0.39992652 61:-0.95844807 62:-0.30033091 63:-0.98184512 64:-0.82291781 65:-0.50162102 66:0.58444895 67:-0.99968512 68:-0.64862774 69:-0.40017506 70:-0.98220905 71:-0.99133967 72:-0.99248099 73:-0.63680767 74:-0.99248099 75:0.30569773 76:-1 77:0.9999993 78:-1 79:-1 80:-1 81:0.99999954 82:-1 83:-0.848318 84:-1 85:-0.97196043 86:-1 87:-1 88:-0.7519163 89:-1 90:-0.43468825 91:-0.98588211 92:-0.29113163 93:-0.98272418 94:-0.9019359 95:-0.52702502 96:0.604055 97:-0.99969593 98:-0.66046164 99:-0.42743099 100:-0.99866437 101:-0.99072738 102:-0.99270035 103:-0.62432744 104:-0.99270035 105:0.99999323 106:-1 107:0.23196938 108:-1 109:-1 110:-1 111:0.99999949 112:-1 113:-0.82589386 114:-1 115:-1 116:-1 117:-1 118:-0.68212227 119:-1 120:-0.47643835 121:-0.99192239 122:-0.36904193 123:-0.98210689 124:-0.92844439 125:-0.51401132 126:0.54677723 127:-0.99967744 128:-0.67584274 129:-0.46204308 130:-0.99864542 131:-0.98976555 132:-0.99193252 133:-0.5964395 134:-0.99193252 135:0.92428347 136:-1 137:-0.37993482 138:-1 139:-1 140:-0.9297319 141:0.99999937 142:-1 143:-0.77704453 144:-1 145:-1 146:-1 147:-0.98219192 148:-0.61189374 149:-0.98219192 150:-0.50737914 151:-0.99147998 152:-0.48602826 153:-0.97710781 154:-0.92556988 155:-0.47119782 156:0.40284779 157:-0.99955603 158:-0.67137522 159:-0.50662106 160:-0.99835565 161:-0.98593945 162:-0.98925704 163:-0.51318699 164:-0.98925704 165:-0.6200775 166:-0.3010092 167:0.14629851 168:-0.55064237 169:-0.5802819 170:0.45769288 171:-0.74261702 172:-0.54766482 173:-0.53269746 174:-0.69202702 175:-0.97856872 176:-0.92073125 177:-0.73583542 178:-0.82546741 179:-0.84087322 180:-0.39039758 181:-0.34222634 182:0.61911004 183:-0.63576966 184:-0.52071808 185:-0.81668286 186:-0.25671655 187:0.82787958 188:0.99451152 189:-0.68562902 190:0.49473983 191:-0.94015017 192:-0.53573538 193:-1 194:-1 195:-1 196:-0.78190906 197:-1 198:-0.99348202 199:-1 200:-0.952282 201:-1 202:-1 203:-1 204:-0.26457565 205:-1 206:-1 207:-0.59687196 208:-0.061083618 209:-1 210:-0.28818973 211:-0.84078647 212:0.97570287 213:-1 214:-1 215:-0.86529082 216:-0.88408835 217:-0.99960511 218:-0.99988987 219:-0.75300293 220:-0.27449188 221:-0.039223255 222:-0.63912352 223:-0.88779702 224:-0.69993513 225:-0.57172007 226:-0.88550728 227:-0.84195426 228:-1 229:-0.86933009 230:-0.57172007 231:-0.88899207 232:-0.37123746 233:0.11394081 234:-0.54623747 235:0.08664146 236:-0.55223881 237:-0.99402871 238:-0.97358591 
0.8528406779355636 3.503757544937347 0 17.76045233917436 0 9.374777652541237 0 0 0.6380720264034001 0:-0.90227293 1:0.83348934 2:-0.076923084 3:-0.95930202 4:-0.8696238 5:-0.85681708 6:-0.92735043 7:0.61890239 8:-1 9:-0.99850304 10:-0.6216307 11:-0.072730418 12:-0.075384302 13:0.10476167 14:-1 15:-0.16666667 16:-1 17:-1 18:-1 19:-0.33914678 20:-0.16196246 21:-0.33664847 22:-0.1711823 23:-0.90588978 24:-1 25:-1 26:-0.97429412 27:-1 28:-0.14214493 29:-0.57674874 30:-0.7142105 31:-0.83982884 32:-0.96363969 33:-0.85744877 34:-1 35:-0.97769926 36:-1 37:-0.9588802 38:-0.47330287 39:-0.73076445 40:-0.85308197 41:-0.93949002 42:-0.92882093 43:-0.6901115 44:-0.69090703 45:-0.92461719 46:-0.56014244 47:-0.83541333 48:-0.74986134 49:-0.22510287 50:0.57480987 51:-0.24956905 52:-0.90182502 53:0.29580184 54:0.5866029 55:-0.82489508 56:-0.61419252 57:-0.63154769 58:0.3087034 59:-0.63154769 60:-0.8001931 61:-0.94918854 62:-0.79869554 63:-0.94127356 64:-0.69510245 65:-0.054061054 66:0.27729608 67:-0.999185 68:-0.32289267 69:0.060848973 70:-0.98139939 71:-0.96436554 72:-0.96448424 73:-0.30290601 74:-0.96448424 75:-0.90649305 76:-0.69240872 77:-0.82938555 78:-0.76812634 79:-0.35406656 80:0.53629184 81:-0.34072986 82:-0.9240135 83:0.29169539 84:0.50783578 85:-0.87513572 86:-0.64156049 87:-0.65101458 88:0.3221113 89:-0.65101458 90:-0.84066254 91:-0.96796619 92:-0.79795618 93:-0.94392733 94:-0.76222704 95:-0.054459976 96:0.11957195 97:-0.99935102 98:-0.34198604 99:0.0026966028 100:-0.99694451 101:-0.96524233 102:-0.9664054 103:-0.29135321 104:-0.9664054 105:-0.85808557 106:-0.76308852 107:-0.88829606 108:-0.75988692 109:-0.43349488 110:0.51971868 111:-0.3714275 112:-0.93259973 113:0.31819307 114:0.40942502 115:-0.87663183 116:-0.6236483 117:-0.62247791 118:0.34844325 119:-0.62247791 120:-0.85726289 121:-0.97604924 122:-0.82055842 123:-0.9407125 124:-0.80948072 125:-0.047711114 126:-0.010339261 127:-0.99941031 128:-0.37102421 129:-0.062347963 130:-0.99634831 131:-0.96477149 132:-0.96372604 133:-0.24912343 134:-0.96372604 135:-0.86456541 136:-0.73456758 137:-0.92539523 138:-0.66756712 139:-0.43331853 140:0.57006077 141:-0.48533252 142:-0.91761467 143:0.40031117 144:0.44808031 145:-0.84399031 146:-0.48807439 147:-0.46521632 148:0.36489653 149:-0.46521632 150:-0.86594953 151:-0.97349819 152:-0.85343501 153:-0.91585678 154:-0.81637399 155:-0.0066074673 156:-0.13153709 157:-0.99921279 158:-0.36128508 159:-0.083663008 160:-0.99516655 161:-0.95278191 162:-0.94819208 163:-0.091653235 164:-0.94819208 165:-0.48056632 166:-0.23345263 167:-0.40413221 168:-0.38691365 169:0.52953843 170:-0.44287687 171:-0.13075057 172:0.012831313 173:0.11812201 174:-0.14150903 175:-0.68962848 176:-0.64017134 177:0.53276691 178:0.032313908 179:0.1446253 180:0.065604026 181:-0.1261239 182:-0.32785989 183:-0.40120497 184:-0.61763887 185:-0.14464562 186:-0.42038217 187:-0.31053432 188:0.99007919 189:0.34382052 190:-0.2273414 191:-0.39439731 192:-0.3756645 193:-0.16433455 194:-0.34654304 195:-0.53773906 196:0.32646589 197:0.58812375 198:0.20356604 199:-0.77316515 200:-0.61500421 201:-0.094394086 202:-0.11003193 203:0.19209317 204:-0.087544321 205:0.5072275 206:0.48084065 207:-0.51341612 208:-0.43011579 209:0.3332389 210:-0.38652472 211:0.31261325 212:0.94933647 213:0.16863331 214:0.094665343 215:-0.73606552 216:-0.76438951 217:-0.99035082 218:-0.99726298 219:-0.75299973 220:-0.27432907 221:-0.039218725 222:-0.3058091 223:-0.75682788 224:-0.2942874 225:-0.37525442 226:-0.85191123 227:0.31667674 228:-0.26512465 229:-0.44198939 230:-0.37525442 231:-0.72442495 232:-0.22408027 233:-0.16196246 234:-0.3366486 235:-0.17118263 236:-0.3880597 237:-0.8562855 238:-0.8458256 
0 0 0 0.116160476354788 0 0 0 0 0 0:-0.8702369 1:0.94708258 2:-0.84615385 3:-0.99455853 4:-0.99204354 5:-0.96037089 6:-0.97435897 7:0.7595453 8:-1 9:-1 10:-0.78146103 11:-0.34232906 12:-0.01019235 13:0.49723387 14:-1 15:-0.25 16:-1 17:-1 18:-1 19:-0.70247805 20:0.19601399 21:-0.60288571 22:0.15671008 23:-1 24:-1 25:-1 26:-1 27:-1 28:0.13974718 29:-0.52937123 30:-0.84166842 31:-0.92877236 32:-0.97854304 33:-1 34:-1 35:-0.96913883 36:-1 37:-0.96783677 38:-0.33335298 39:-0.85913026 40:-0.94880816 41:-0.9171079 42:-0.83101646 43:-0.87582532 44:-0.53837624 45:-0.93226693 46:-0.35323906 47:-0.88071461 48:-0.67073502 49:-0.017059336 50:0.51549159 51:-0.40738316 52:-0.8719679 53:0.33957093 54:0.68387247 55:-0.7533711 56:-0.52206502 57:-0.53137208 58:0.33180297 59:-0.53137208 60:-0.16578387 61:-0.9899195 62:-0.11149187 63:-0.97562051 64:-0.91547839 65:-0.66085638 66:0.78183345 67:-0.99997341 68:-0.85457564 69:-0.54918265 70:-0.98324095 71:-0.99513018 72:-0.99498948 73:-0.84660665 74:-0.99498948 75:-0.9000524 76:-0.65183774 77:-0.88086882 78:-0.67698101 79:-0.33399213 80:0.44081287 81:-0.26986453 82:-0.88589904 83:0.33374113 84:0.64073932 85:-0.80983455 86:-0.52331536 87:-0.52930328 88:0.36257766 89:-0.52930328 90:-0.2475179 91:-0.99600876 92:-0.11501271 93:-0.97599429 94:-0.94937125 95:-0.65701992 96:0.77495329 97:-0.99997571 98:-0.85903955 99:-0.54412687 100:-0.99966438 101:-0.99473546 102:-0.99505639 103:-0.84122824 104:-0.99505639 105:-0.84924097 106:-0.73769225 107:-0.91898367 108:-0.65950746 109:-0.43116745 110:0.44178035 111:-0.27861948 112:-0.88872353 113:0.35308578 114:0.56872938 115:-0.81060974 116:-0.47735726 117:-0.48380707 118:0.38532747 119:-0.48380707 120:-0.30097283 121:-0.99714575 122:-0.23614892 123:-0.97394356 124:-0.95875007 125:-0.63218236 126:0.71297811 127:-0.99997562 128:-0.8654063 129:-0.55869851 130:-0.99968557 131:-0.99441201 132:-0.99443399 133:-0.83154482 134:-0.99443399 135:-0.86066066 136:-0.70341421 137:-0.92607809 138:-0.59636863 139:-0.39760704 140:0.48755436 141:-0.43072667 142:-0.87987826 143:0.41428842 144:0.58222872 145:-0.7888675 146:-0.33546592 147:-0.37596362 148:0.36327585 149:-0.37596362 150:-0.3120112 151:-0.99683087 152:-0.31551881 153:-0.96738727 154:-0.95753362 155:-0.60631259 156:0.61529197 157:-0.99997287 158:-0.86557292 159:-0.60085972 160:-0.99966168 161:-0.99300639 162:-0.99288501 163:-0.80361114 164:-0.99288501 165:-0.66759028 166:-0.2780677 167:-0.74238251 168:-0.57514192 169:0.70450117 170:-0.4027294 171:-0.053427175 172:-0.26029216 173:0.54570224 174:-0.003395609 175:-0.84511758 176:-0.91938587 177:0.25297638 178:-0.18249853 179:-0.25373633 180:-0.56060351 181:0.091766468 182:-0.40523641 183:0.11418586 184:-0.44676452 185:-0.0036411418 186:-0.33437482 187:-0.36393981 188:0.97603649 189:0.34746308 190:-0.21799256 191:-0.69914364 192:-0.55877141 193:-0.50336731 194:-0.34806719 195:-0.73591301 196:-0.7158118 197:0.44542759 198:0.37216073 199:-0.93832273 200:-0.95632295 201:0.28234901 202:0.061922967 203:-0.045424187 204:-0.20729148 205:0.60428383 206:0.4362777 207:-0.035731283 208:-0.30437604 209:0.17576157 210:-0.34209486 211:0.34162418 212:0.97429464 213:0.23645912 214:0.19623976 215:-0.89626284 216:-0.9088056 217:-0.99967253 218:-0.99995945 219:-0.75300292 220:-0.27445996 221:-0.039223262 222:-0.85393019 223:-0.93768846 224:-0.84388356 225:-0.60235657 226:-0.93462201 227:0.3517579 228:-0.15060789 229:-0.63268592 230:-0.60235657 231:-0.62708943 232:-0.43143813 233:0.19601399 234:-0.6028858 235:0.15670962 236:-0.57552239 237:-0.98103921 238:-0.96314407 
